{
  "action_dim": 64,
  "arms": [
    {
      "actionId": "action_87e6dc77",
      "channel": "email"
    },
    {
      "actionId": "action_a1c_test",
      "channel": "email"
    },
    {
      "actionId": "action_a1c_test",
      "channel": "mail"
    },
    {
      "actionId": "action_a1c_test",
      "channel": "push"
    },
    {
      "actionId": "action_a1c_test",
      "channel": "sms"
    },
    {
      "actionId": "action_annual_wellness_visit",
      "channel": "email"
    },
    {
      "actionId": "action_annual_wellness_visit",
      "channel": "mail"
    },
    {
      "actionId": "action_annual_wellness_visit",
      "channel": "push"
    },
    {
      "actionId": "action_annual_wellness_visit",
      "channel": "sms"
    },
    {
      "actionId": "action_annual_wellness_visit",
      "channel": "voice"
    },
    {
      "actionId": "action_benefits_education",
      "channel": "email"
    },
    {
      "actionId": "action_benefits_education",
      "channel": "mail"
    },
    {
      "actionId": "action_benefits_education",
      "channel": "push"
    },
    {
      "actionId": "action_benefits_education",
      "channel": "sms"
    },
    {
      "actionId": "action_care_manager_outreach",
      "channel": "voice"
    },
    {
      "actionId": "action_colonoscopy",
      "channel": "email"
    },
    {
      "actionId": "action_colonoscopy",
      "channel": "mail"
    },
    {
      "actionId": "action_colonoscopy",
      "channel": "push"
    },
    {
      "actionId": "action_colonoscopy",
      "channel": "sms"
    },
    {
      "actionId": "action_hra",
      "channel": "email"
    },
    {
      "actionId": "action_hra",
      "channel": "mail"
    },
    {
      "actionId": "action_hra",
      "channel": "push"
    },
    {
      "actionId": "action_hra",
      "channel": "sms"
    },
    {
      "actionId": "action_hra",
      "channel": "voice"
    },
    {
      "actionId": "action_hra_reminder",
      "channel": "email"
    },
    {
      "actionId": "action_hra_reminder",
      "channel": "mail"
    },
    {
      "actionId": "action_hra_reminder",
      "channel": "push"
    },
    {
      "actionId": "action_hra_reminder",
      "channel": "sms"
    },
    {
      "actionId": "action_login_reminder",
      "channel": "email"
    },
    {
      "actionId": "action_login_reminder",
      "channel": "mail"
    },
    {
      "actionId": "action_login_reminder",
      "channel": "push"
    },
    {
      "actionId": "action_login_reminder",
      "channel": "sms"
    },
    {
      "actionId": "action_mammogram",
      "channel": "email"
    },
    {
      "actionId": "action_mammogram",
      "channel": "mail"
    },
    {
      "actionId": "action_mammogram",
      "channel": "push"
    },
    {
      "actionId": "action_mammogram",
      "channel": "sms"
    },
    {
      "actionId": "action_med_adherence",
      "channel": "email"
    },
    {
      "actionId": "action_med_adherence",
      "channel": "mail"
    },
    {
      "actionId": "action_med_adherence",
      "channel": "push"
    },
    {
      "actionId": "action_med_adherence",
      "channel": "sms"
    },
    {
      "actionId": "action_pcp_selection",
      "channel": "email"
    },
    {
      "actionId": "action_pcp_selection",
      "channel": "mail"
    },
    {
      "actionId": "action_pcp_selection",
      "channel": "push"
    },
    {
      "actionId": "action_pcp_selection",
      "channel": "sms"
    },
    {
      "actionId": "action_pcp_selection",
      "channel": "voice"
    },
    {
      "actionId": "action_plan_welcome",
      "channel": "email"
    },
    {
      "actionId": "action_plan_welcome",
      "channel": "mail"
    },
    {
      "actionId": "action_plan_welcome",
      "channel": "push"
    },
    {
      "actionId": "action_plan_welcome",
      "channel": "sms"
    },
    {
      "actionId": "action_plan_welcome",
      "channel": "voice"
    },
    {
      "actionId": "action_portal_registration",
      "channel": "email"
    },
    {
      "actionId": "action_portal_registration",
      "channel": "mail"
    },
    {
      "actionId": "action_portal_registration",
      "channel": "push"
    },
    {
      "actionId": "action_portal_registration",
      "channel": "sms"
    },
    {
      "actionId": "action_portal_registration",
      "channel": "voice"
    },
    {
      "actionId": "action_reengage",
      "channel": "email"
    },
    {
      "actionId": "action_reengage",
      "channel": "mail"
    },
    {
      "actionId": "action_reengage",
      "channel": "push"
    },
    {
      "actionId": "action_reengage",
      "channel": "sms"
    },
    {
      "actionId": "action_wellness_education",
      "channel": "email"
    },
    {
      "actionId": "action_wellness_education",
      "channel": "mail"
    },
    {
      "actionId": "action_wellness_education",
      "channel": "push"
    },
    {
      "actionId": "action_wellness_education",
      "channel": "sms"
    }
  ],
  "feature_cols": [
    "daysSinceLogin",
    "respondedToOutreach",
    "registeredForPortal",
    "loggedIn",
    "viewedBenefits",
    "hraCompleted",
    "pcpSelected",
    "careTeamEngaged",
    "awvCompleted",
    "medAdherent",
    "mammogramDone",
    "a1cControlled",
    "colonoscopyDone",
    "riskScore",
    "diabetic",
    "isDNC",
    "smsConsent",
    "totalThisWeek",
    "emailsThisWeek",
    "age",
    "planDSNP",
    "tenureMonths",
    "sdohBarrier",
    "comorbidityCount",
    "erVisits12mo",
    "rxAdherencePDC",
    "openCareGaps",
    "portalLogins30d",
    "pagesViewed30d",
    "avgTimeOnPageSec",
    "benefitsPageViews"
  ],
  "layers": [
    {
      "W": [
        [
          0.07028926657622396,
          -0.005396445467282181,
          0.14611596172186117,
          -0.04737019901005081,
          -0.26433056303989144,
          0.1936746475081875,
          0.16145595345976105,
          0.21379863027341703,
          -0.23769366255677382,
          -0.30386360745696467,
          -0.1975854584302409,
          0.04051677997693572,
          -0.46119325800237393,
          -0.058074729704075165,
          -0.21493754560829495,
          -0.14645347595214844,
          -0.19448800572970829,
          -0.06326003074645996,
          0.08232610821723939,
          0.30392836243724786,
          -0.06437764896318256,
          0.31644834097914687,
          -0.18987212919549773,
          -0.014271360926751206,
          0.169217479783502,
          -0.08571816008145888,
          -0.0713160291242223,
          -0.14787023702721713,
          -0.010569817539310794,
          0.02294708300225774,
          -0.2274787498465367,
          -0.1387979123896583,
          -0.05112748747620204,
          0.10816911458969117,
          0.02742739638627015,
          0.0710745394229889,
          -0.13076572418212892,
          -0.025922727584838868,
          0.1657401022263522,
          0.2805336550496528,
          -0.25181310176849364,
          0.38329439072735383,
          0.2518534716052523,
          0.15626227855682373,
          0.07391564957876015,
          -0.04475313121942232,
          0.41295977204851886,
          0.41764959173364263,
          0.2724274284284085,
          0.26302075386047363
        ],
        [
          0.05784751804541341,
          -0.19259535216646467,
          0.024657452547044715,
          0.11931986138131608,
          -0.3154835380189944,
          -0.020098376008673032,
          -0.011501423110135741,
          0.03776481475694653,
          -0.30610929551151894,
          -0.14873909071531158,
          -0.04516072169943002,
          -0.34587730948348333,
          0.3767187495279487,
          -0.16506157485624398,
          0.02600492737167235,
          -0.05171450972557068,
          0.5020403531648295,
          0.26407220363616946,
          0.12667052745819093,
          -0.5074028584942625,
          0.018833648310853993,
          0.13729471194837733,
          0.1079894602867162,
          -0.19931801262017573,
          0.4291827385922312,
          -0.19732860476147107,
          -0.23570381994879194,
          0.19449508416732103,
          0.0552156074926501,
          0.42550477987295504,
          0.048396826853539084,
          -0.06204381830353726,
          -0.06435323190860065,
          -0.21822922229766847,
          -0.3556988543866583,
          0.12608230113983154,
          0.11623315811157227,
          0.2589117527008057,
          -0.11252199819786977,
          0.325928868888973,
          -0.05747753977775574,
          0.3398548170952269,
          -0.16945967488288707,
          -0.14709665775299072,
          0.09902544177217172,
          0.23183890569308696,
          -0.06692087027709079,
          -0.27349878972715413,
          -0.44563507322172186,
          -0.2803040504455567
        ],
        [
          0.05120017165561271,
          0.24367452764478226,
          -0.13740437541089812,
          -0.25476227666442774,
          0.18982197015893382,
          -0.3001800482063627,
          -0.12398107441861982,
          0.08122559648172795,
          -0.3968224978166816,
          0.08833534909164688,
          -0.07619942323885567,
          0.1213133343100039,
          -0.0432702353713177,
          0.05035245064395183,
          0.17208956135894757,
          -0.15167394876480103,
          0.23754921586428512,
          0.14521875381469726,
          0.16874653100967407,
          0.20264537493644974,
          0.1792318983867293,
          0.19674995232558154,
          0.025330301772276027,
          -0.31816310067016046,
          -0.1373450209130356,
          -0.24097499474268816,
          -0.24300758163948344,
          0.061741467321236684,
          -0.056346342856440426,
          -0.21333310738684946,
          -0.23934375327598906,
          0.07574727868059486,
          0.098684146288665,
          0.26449148654937743,
          -0.00962236972835428,
          0.2083679437637329,
          0.2804529666900635,
          0.23003313541412354,
          -0.44102879692148234,
          0.24129132439714315,
          0.06792399883270264,
          0.09257336582426297,
          0.021746274067682928,
          0.07655143141746522,
          0.10961477065053617,
          -0.17632811877809512,
          -0.42442831442645546,
          0.01297490190812835,
          -0.10480246204559761,
          0.21603267192840578
        ],
        [
          -0.20220490392270207,
          -0.018588195423756396,
          -0.13515285342718106,
          -0.17265468717499072,
          -0.04411808922850421,
          -0.40678254402775427,
          -0.021956234861579927,
          0.0188513826372468,
          -0.2383356255930654,
          -0.4722082129152432,
          0.10922596024723275,
          -0.015878371908392242,
          -0.022601059265751823,
          0.000431968749592992,
          0.41602505434536374,
          -0.009960193932056428,
          -0.004123033070325319,
          -0.29741456508636477,
          0.32946782112121586,
          0.2232207721184381,
          0.3019274595682198,
          0.14237199583058516,
          0.3021057522877879,
          0.14914168400047023,
          0.1608646384265441,
          0.11782156467747715,
          -0.3195805338003886,
          0.15118291254351096,
          -0.46858228624415865,
          -0.06027380318502041,
          -0.04544093275106729,
          -0.22106581454373225,
          0.0916283908090267,
          -0.04006594121456147,
          -0.00038478660699858223,
          0.10396834611892701,
          -0.09531580805778504,
          0.2777960062026978,
          0.005224789844470537,
          -0.04854281965713106,
          -0.3888530015945435,
          -0.30045219446729715,
          0.16808531685195047,
          -0.010120812803506851,
          -0.09190828172412842,
          0.36341867357706603,
          -0.3662373665680374,
          -0.03698303591127756,
          -0.04030631434947977,
          0.11726745367050172
        ],
        [
          -0.17109752135630485,
          -0.09346170647446121,
          -0.3728318640485419,
          0.18808907759071683,
          0.23843732554596497,
          -0.12975155736466226,
          -0.08469572204174797,
          -0.28369837719958263,
          -0.2094308610268556,
          0.19145459193125064,
          0.09488369517098101,
          0.4717312388351278,
          -0.12178431987887961,
          0.1397107342494088,
          -0.0885693026940834,
          0.11316356658935547,
          -0.036604827107569606,
          -0.11223962306976319,
          -0.1735233545303345,
          0.6671947413595587,
          -0.01342147503924587,
          -0.5075256422449488,
          -0.16349867470349413,
          0.17117145024389732,
          -0.058222198656654865,
          0.39064857270003744,
          0.2651741262205281,
          -0.16677046445741,
          -0.11866915237787672,
          -0.3261452951325755,
          -0.11504134746257282,
          -0.33971110909590296,
          0.24268591877719956,
          0.3181401491165161,
          -0.2941891523438061,
          -0.2363365888595581,
          -0.35370237827301027,
          -0.19277085065841676,
          -0.6879664352729574,
          -0.29514315260993423,
          0.25938308238983154,
          -0.055369566425780156,
          0.16821638721751062,
          -0.09779381155967713,
          0.38135533110793496,
          -0.01195838837772949,
          -0.11087666775246412,
          0.5003445636296265,
          -0.11151867861725513,
          -0.24424467086791993
        ],
        [
          -0.03177636959341692,
          -0.03030953551986533,
          0.13650472860073,
          -0.21783771871026777,
          0.1263013718542591,
          0.11548628327046463,
          -0.1982394091439007,
          -0.007451232465555973,
          -0.13927127756396646,
          0.5473645845683428,
          -0.21046347032273482,
          -0.1603508639814531,
          -0.153674815002269,
          -0.11149251064201744,
          -0.07753196207287914,
          0.153557825088501,
          -0.20265314884556304,
          -0.03715479075908661,
          -0.283297872543335,
          -0.16604885655683424,
          0.5768597359388884,
          0.2078606946582948,
          -0.03899861726391328,
          -0.3862701899865485,
          -0.2531761136948123,
          -0.1263623497231334,
          0.007154663200949868,
          -0.06493914052635057,
          -0.16100601780076151,
          0.2616297954315182,
          0.07044423348054393,
          -0.18369515210961407,
          -0.07115899381463324,
          -0.10590609312057496,
          -0.529687816183002,
          0.023132365942001343,
          -0.21410887241363527,
          -0.20053687095642092,
          -0.20986808559302078,
          0.14926760691567345,
          -0.23410615921020508,
          -0.2663536882804588,
          0.16060462913572957,
          0.15087378025054932,
          -0.21432927023032117,
          0.035719342038383686,
          -0.11338989618624586,
          -0.005405126768261767,
          -0.24919737703107467,
          0.16657888889312744
        ],
        [
          0.2148091635102747,
          0.14463120203320476,
          0.0798724869365499,
          -0.7963849354785734,
          0.030322691021691627,
          -0.04281396228147342,
          -0.04321264984376922,
          -0.16125878283713405,
          0.08767674854835629,
          0.21413181002451326,
          -0.015528185186428501,
          -0.07296852133595924,
          0.29964871020430434,
          -0.24099348139375787,
          0.28246880948920056,
          0.03536249399185181,
          -0.205035198837221,
          -0.05799638032913208,
          -0.18399871587753297,
          0.1738577745056636,
          0.09651171850871146,
          -0.08933196000534681,
          -0.2574996963338531,
          0.08259988126680601,
          0.2192597958702994,
          -0.10389821570661614,
          0.03564404227075645,
          -0.029142217251228248,
          0.05308674073939679,
          -0.1161572874203348,
          0.0850950131841958,
          -0.2804130916625853,
          0.13256444641135473,
          -0.045986497402191163,
          0.08634751405514092,
          -0.06806202530860901,
          0.0640722393989563,
          -0.21451256275177003,
          0.23654393358332224,
          -0.3413930166026331,
          -0.20784776210784914,
          0.07859007630760577,
          0.3089801065156293,
          0.05562525987625122,
          -0.03236513335402493,
          -0.3168135424976508,
          -0.07598023298455,
          -0.0655173509160825,
          0.3195567280619627,
          0.12442504167556763
        ],
        [
          -0.41832217963410573,
          0.5034059030223487,
          -0.1518700146423223,
          -0.28739516377855434,
          0.264429671985025,
          0.07260496281515944,
          -0.11730878475473579,
          0.06624386492219954,
          0.17372190680751573,
          0.23848667065226514,
          -0.2997878470826794,
          0.40067857895533954,
          0.2483679390641738,
          -0.14591091624769034,
          -0.26572116876871815,
          -0.19380248785018922,
          0.025201391237239402,
          -0.12960325479507448,
          -0.15297479629516603,
          0.19768633919900636,
          0.04245646738088272,
          -0.1351501174568813,
          0.05973379748716201,
          0.2988565466205262,
          -0.3367912695593561,
          -0.025348045701846185,
          0.2682023352216679,
          0.21865388703101543,
          0.060905059246747016,
          0.20827960537422474,
          -0.27016593983471227,
          -0.23955027379882354,
          -0.10257729560508143,
          0.024508818984031677,
          -0.23023572310762536,
          -0.09744362831115723,
          -0.1950000286102295,
          -0.12408583164215088,
          -0.1913250391108039,
          0.06623339572705234,
          0.15897821187973024,
          -0.10972504131398213,
          -0.055149723689034515,
          -0.11620651483535767,
          0.2043003064799841,
          -0.055056832109536616,
          0.40138748698365395,
          -0.16917303454621846,
          0.09334382403217929,
          0.08879827857017518
        ],
        [
          -0.1790152711106692,
          0.16714842041324054,
          -0.2908655304580959,
          0.35200670952695007,
          -0.3840277160641804,
          0.15181170916692197,
          -0.23258185321610822,
          0.28021943671956545,
          -0.13512492648954436,
          0.010506411103664784,
          -0.107637126581638,
          0.2823450765717542,
          -0.20788797332965872,
          -0.5925323349335788,
          -0.164925181908057,
          0.03674246370792389,
          -0.13154223852077626,
          0.15396417379379274,
          0.2030653953552246,
          0.025685046843247312,
          -0.25951376565263895,
          0.2970522582208943,
          0.2093715266670454,
          -0.033695467648452646,
          0.4612161905951822,
          -0.10802592683537271,
          -0.23375437787624903,
          -0.05008216320257971,
          0.2432591176134803,
          -0.3241934000735809,
          0.5342991422220654,
          -0.12819250627805095,
          0.15867564861276046,
          0.10889247655868531,
          0.03372181596507253,
          0.21610660552978517,
          -0.2999597549438477,
          0.271514368057251,
          -0.090303711278222,
          -0.13957362676037105,
          0.14983481168746948,
          0.2287145173236792,
          0.17101794563143977,
          0.39990077018737796,
          0.26658680160831155,
          0.25354033521115243,
          -0.14012253069742733,
          0.04494780899901526,
          0.08311670428049858,
          -0.0035484474152326587
        ],
        [
          0.020449724526793372,
          0.10540628849827992,
          0.09111452590743549,
          -0.10161008004871772,
          -0.12836102202711003,
          -0.1764204988404207,
          -0.297419554478192,
          0.38664447468280083,
          -0.03567286918162457,
          0.23640374329318042,
          -0.21056437042396806,
          -0.326421334961211,
          -0.21760344553948996,
          0.29337350996810935,
          0.21132746898546098,
          0.06640772223472595,
          -0.14944466212739058,
          -0.026160529255867006,
          -0.05955209732055664,
          -0.08173823660258894,
          -0.5149420082086904,
          -0.1584622973923216,
          -0.10540056265193264,
          0.1916246356652954,
          0.08873917017024728,
          0.2915695947364394,
          0.04084612527044577,
          -0.08313048181167977,
          -0.7814262634440422,
          0.13005701796451025,
          0.1859150039505124,
          0.3522694305877855,
          -0.1134466914820477,
          0.01883083134889603,
          -0.14828910777454388,
          -0.23525140285491944,
          -0.14262158870697023,
          -0.06899970769882202,
          0.26291166110565484,
          0.029211456290834294,
          -0.15810896158218385,
          0.0755785287453136,
          -0.004003989148415504,
          -0.13524640798568727,
          0.24883206903302327,
          -0.4554040502377388,
          -0.05346628820142145,
          0.2063716480272175,
          -0.24032933558473285,
          0.07225074768066407
        ],
        [
          0.3438770863712457,
          0.15568932781937994,
          -0.44117578443522615,
          -0.18351869163023626,
          0.25280498183603695,
          0.01909582203551411,
          -0.07741429892799588,
          0.026887063822463222,
          0.024020923364011865,
          -0.2290405804641734,
          -0.15029121597500425,
          0.06392746537849216,
          -0.04314480818051115,
          -0.08341608104180157,
          0.2818825262659791,
          -0.193563973903656,
          0.43811810212413277,
          0.37586886882781984,
          -0.3426878929138184,
          0.026581172657577517,
          0.02543249782208875,
          -0.11313409189052419,
          -0.22040241962254137,
          -0.09242998128416122,
          0.14148326814063678,
          -0.06769499020451708,
          0.3469924148079715,
          0.10582992914905003,
          0.10247525101504107,
          0.3260122284960202,
          0.04996977739374134,
          0.1383345811638921,
          -0.04081003411790798,
          0.3627971172332764,
          0.2264693292460969,
          -0.0406822681427002,
          -0.3154398202896118,
          0.07459030747413635,
          -0.10605274044268093,
          -0.3872518322054474,
          -0.055830299854278564,
          0.0391426178864675,
          0.24615175486485774,
          0.05649036765098572,
          0.22615898142579294,
          -0.34832033094401577,
          -0.04507766442076058,
          -0.014163473597684786,
          0.11180484214296957,
          0.023212134838104248
        ],
        [
          0.2794521392077053,
          -0.06841063772958998,
          0.030728475677898333,
          0.0532174111633588,
          -0.3314846911508398,
          -0.011289070883506041,
          -0.1394047014700659,
          -0.3854467071529732,
          0.23544763761502893,
          -0.20090127419651752,
          -0.09559634969578447,
          -0.10138774619828247,
          0.011807997036346687,
          0.37555246752867194,
          0.07441606677832437,
          0.09448149800300598,
          0.36533426805289526,
          0.10671011209487916,
          0.21371283531188967,
          -0.07411229070202828,
          0.2009564697807225,
          0.016760707634115638,
          0.1916620055336255,
          -0.18330727644549719,
          -0.06606823494354175,
          0.20776546024827716,
          -0.0642613233089382,
          -0.025615295449674686,
          0.0896402955834815,
          -0.19540770841721014,
          0.36178895746555234,
          -0.21918683976612977,
          -0.01736641342550384,
          0.06939055919647218,
          -0.03482513231815586,
          -0.1604575037956238,
          -0.17367783784866334,
          0.08507888317108155,
          -0.16913094868638884,
          0.11829403830898853,
          -0.3048296689987183,
          -0.16646100932468966,
          0.02663003907489198,
          -0.25043039321899413,
          0.16283138716893802,
          -0.04457027099735478,
          -0.25361153368066996,
          -0.30524909734837397,
          -0.36424467983239034,
          0.010206788778305054
        ],
        [
          -0.4936438320893717,
          -0.31509307390671376,
          -0.14157078777840965,
          0.4826163665753622,
          -0.022046899429545377,
          0.11737697981647212,
          0.023622730854060754,
          0.0852388442845846,
          -0.29046612250595055,
          -0.04463195324555904,
          0.06387405187764386,
          0.09446040577050764,
          0.03346247889884756,
          -0.18404033026347924,
          -0.14087097311011185,
          -0.154839563369751,
          -0.5943831163381113,
          -0.238901686668396,
          0.09513058662414552,
          0.2940340554164765,
          0.388725647316105,
          0.06777815940766833,
          0.21865183815325703,
          0.22457897823082987,
          -0.19239003674495872,
          -0.31522464552707335,
          -0.04652953150457642,
          -0.2919604736470358,
          0.07275841022728458,
          0.20754194735281822,
          -0.191692979255648,
          0.09354697271813206,
          0.3058222867226341,
          0.07230249643325806,
          0.20936568831991498,
          0.18134808540344238,
          0.3465926170349121,
          0.030284616351127627,
          0.2236493553550441,
          -0.04555814280156055,
          -0.10923376083374024,
          0.15888459679609448,
          -0.12168088124159586,
          -0.11462584733963013,
          -0.1636652804039088,
          -0.554410444846667,
          -0.014106890928232549,
          -0.25071080219282094,
          0.021726605851982387,
          0.2899937629699707
        ],
        [
          -0.05204916026422611,
          -0.1672297347623167,
          0.3471992739326657,
          0.17122147793637088,
          0.24798263216820537,
          -0.0892320201931769,
          0.2177906951936363,
          -0.20164865112097052,
          -0.09191281741439901,
          0.1634612285582329,
          -0.2211470899989453,
          0.21718851599989927,
          0.4928663165196606,
          -0.37765445890970506,
          -0.18168106878634743,
          0.22402923107147218,
          -0.06106099634823627,
          0.23221797943115235,
          -0.20201284885406495,
          0.2628570916569413,
          -0.051874196624422594,
          0.08656236167024543,
          -0.11266007810997379,
          -0.250422097951463,
          -0.20996314352544654,
          0.28839802038793627,
          0.05112605108358404,
          0.04419834354226494,
          -0.017317651706056713,
          -0.053419775816634915,
          -0.30966792673701404,
          -0.26895154395120263,
          0.28206904425873236,
          0.030255043506622316,
          0.302054662474302,
          -0.12113280296325685,
          0.2753450870513916,
          0.0690556824207306,
          0.0918008239848013,
          0.10653184503777235,
          -0.15940184593200685,
          -0.45369900327985757,
          -0.1512907082182034,
          0.3261045694351197,
          0.20130889524638143,
          0.005033130276883421,
          -0.07850903730972413,
          0.15061394489183844,
          -0.03478706876609956,
          -0.2598519802093506
        ],
        [
          0.2335460996696469,
          0.03342517857443838,
          -0.5748094563037693,
          -0.014624563057608442,
          0.049577583674263945,
          0.08643288869462214,
          0.008938865956342357,
          -0.19122025801388576,
          -0.10675902310893035,
          0.053729781090823506,
          -0.05236744678614704,
          -0.060959176847155204,
          0.27280399397386257,
          -0.2846947795476045,
          -0.07532676343931831,
          -0.4062538146972656,
          0.1276231663100076,
          0.1656528949737549,
          0.10969736576080323,
          0.1947330657090888,
          0.16073765085117894,
          0.03434475732464493,
          0.07253915258306062,
          -0.09575572357520415,
          0.2548729430219103,
          -0.10105531518033292,
          -0.2675711118014662,
          0.12467876779465395,
          0.40562083771005397,
          -0.11609080257468726,
          -0.10778560614265414,
          -0.16880971190392244,
          -0.06714546707473706,
          0.009218594431877137,
          -0.4547092269933405,
          -0.055530732870101934,
          -0.29319348335266116,
          -0.11364552974700928,
          -0.26543276490145423,
          -0.24128390163275934,
          -0.3439821243286133,
          0.21923625373424638,
          0.11492946865389823,
          -0.38349280357360843,
          -0.18137604947197838,
          -0.20562921805684162,
          -0.14800530414976745,
          -0.39671542680219035,
          0.15646395633359622,
          -0.07917275428771973
        ],
        [
          0.09678774841603545,
          0.15086166713634303,
          0.3112510872505005,
          -0.4276627244967376,
          0.3689476832819748,
          0.20692076628998887,
          0.07475550307543932,
          0.4412430850466094,
          0.18826142050668607,
          0.18920074034555392,
          -0.13454551416138077,
          0.28830062481696,
          0.06971935732531233,
          -0.07015064867398374,
          0.4769935029712481,
          -0.06095993518829346,
          0.0026852947669612974,
          -0.0394559919834137,
          -0.15113418102264406,
          0.02893119603291794,
          -0.023258452513930352,
          0.06810043838473932,
          -0.5296560815810486,
          0.34782907154688675,
          -0.029596525690647003,
          -0.36346081494259685,
          0.14451919644184524,
          0.12209824693753063,
          -0.27199033668928685,
          0.5074511019235205,
          -0.30146779564054416,
          -0.48933076396890274,
          -0.3427587448291696,
          0.2841599702835083,
          0.09586585769239003,
          -0.07441133856773377,
          -0.012431544065475465,
          -0.1193227767944336,
          -0.16060097652288674,
          -0.22820902370345808,
          0.1415911078453064,
          0.2706912237439275,
          -0.3109994844718835,
          0.04784559309482575,
          0.203151963690909,
          -0.18018837445757382,
          -0.1473556047122078,
          -0.2342262387213312,
          -0.36884062661059874,
          0.020372574031352998
        ],
        [
          -0.25040307287133134,
          0.10876769350864514,
          0.01658170445315159,
          0.10566084944463269,
          -0.1581165029373153,
          -0.14585577830233268,
          -0.002537138302663407,
          -0.0034681453260641073,
          -0.08219403512072136,
          0.007848516511778337,
          0.16304438808270008,
          0.027167417957652023,
          0.3605698321020549,
          -0.14982294294538387,
          0.09527014208002133,
          -0.0817469596862793,
          0.03285226206772976,
          -0.1659898638725281,
          0.22302467823028566,
          0.2231710898825942,
          0.23333400580693472,
          -0.3633059029369084,
          -0.04849632877975423,
          -0.25546819309187674,
          -0.19528671539700115,
          -0.17550114345694368,
          -0.02083116820340626,
          -0.05465729253999126,
          -0.057432519365076186,
          -0.19843332893367654,
          -0.06782082759660767,
          0.27011278927380017,
          -0.16381406877516824,
          0.00017772499704733492,
          -0.08036023106670243,
          0.09367092847824098,
          -0.012771716713905335,
          -0.0031329605728387835,
          -0.17136048862219938,
          -0.027978343379777646,
          -0.18437689542770386,
          0.13740828176004846,
          -0.10372130939103104,
          0.007971683889627457,
          -0.19569619370601174,
          0.1832176104044141,
          0.11960647717557427,
          0.1782377322505894,
          0.3807778767791778,
          -0.010503876209259034
        ],
        [
          0.37791690235156206,
          -0.028070086478984294,
          0.07011923807927348,
          0.04800669917453487,
          0.07679697023426686,
          0.18864090999830144,
          -0.06059491092336514,
          -0.03486115474372666,
          0.1631024996321808,
          0.3227927135470614,
          -0.1616325713992106,
          -0.42547030927273066,
          0.016082543760368693,
          0.00853316394635752,
          -0.07191350815665697,
          0.018443557620048522,
          0.32758939263389775,
          0.19520995616912842,
          -0.009853581339120865,
          -0.2518485056859742,
          -0.007646751544875159,
          0.03432867826981458,
          -0.015708389911552868,
          -0.32874547778666685,
          -0.137347903879911,
          -0.062450865704596355,
          -0.10981468680809962,
          -0.1485187349407932,
          0.09681780787138973,
          -0.04153013595397933,
          -0.08876760270595675,
          0.10422801449753187,
          0.016503781432670846,
          0.043290945887565616,
          0.15530563756602858,
          0.08439390063285829,
          0.05003249049186707,
          -0.03928831219673157,
          0.16965097436181317,
          0.04939351007472528,
          -0.10097055435180664,
          -0.1074918584770795,
          -0.3313299027221196,
          -0.1923111915588379,
          -0.3798861222861162,
          -0.14468449932268757,
          0.32409875950086264,
          -0.11756634455802537,
          0.07603296903068084,
          -0.0006899708416312933
        ],
        [
          -0.12328850506073995,
          0.34130999777575277,
          0.0492354675433514,
          -0.3732170441299698,
          0.11125829719271697,
          -0.33533042499945864,
          -0.03865441126720348,
          0.1523731730232805,
          -0.08103535352897594,
          0.16035576982464897,
          0.15552246071423315,
          -0.28382154262397674,
          -0.16806185252271597,
          0.11138132543504214,
          -0.17489559627487397,
          -0.04325530230998993,
          0.009832842682495459,
          0.06335626244544983,
          -0.1841238021850586,
          0.07787535441732256,
          -0.10115024674716956,
          -0.2749473258912622,
          -0.15433784687328161,
          0.1584870995859593,
          -0.02957233456035948,
          -0.01926487568762477,
          -0.13437170302549345,
          -0.0661440535298555,
          -0.2793441001204102,
          -0.2700905547284405,
          -0.06500259353991376,
          -0.2799661941364845,
          0.1488948572753675,
          0.4973765850067139,
          0.19149407804657945,
          -0.20858063697814944,
          -0.054237103462219244,
          -0.31108758449554447,
          -0.015745855015558464,
          0.09206943846895654,
          0.11787695884704591,
          -0.23539137393786724,
          0.037889145840684986,
          0.23128161430358887,
          0.4246724102284505,
          -0.20736467398191863,
          -0.2932121140711149,
          -0.02581213753401629,
          -0.5949857916652722,
          -0.1062067985534668
        ],
        [
          -0.023303311295368053,
          -0.14715399987470063,
          -0.28315490556379636,
          0.03778142229348835,
          -0.20837821359157416,
          0.14041001597545893,
          -0.2869796071702406,
          -0.05772446151378356,
          -0.0968247804422941,
          0.015560712478549867,
          -0.5383740472839106,
          0.04221571542888957,
          0.17027197739043462,
          -0.06004193637418082,
          -0.41354935045067964,
          0.06531963348388672,
          0.08538051048997501,
          -0.054097878932952884,
          -0.2319591522216797,
          -0.20953791198235938,
          -0.051341416245961335,
          -0.06777687713454943,
          -0.450309423341685,
          -0.18081740680982883,
          -0.0389407544945031,
          -0.14483671553822042,
          -0.03671224554539909,
          0.0009928478812361045,
          0.19531288133804173,
          0.521864800119016,
          0.10970778196136599,
          -0.5251094941158522,
          -0.5310037764201114,
          -0.018892434239387513,
          0.04640948353800766,
          -0.2323746681213379,
          0.05440642833709717,
          -0.15338791608810426,
          0.10393763892155303,
          -0.03532568776009242,
          0.07949251532554627,
          -0.4461038901114175,
          -0.14717022952716827,
          -0.029719200730323792,
          -0.3402605617738854,
          0.4100874059138649,
          -0.11924127539493483,
          0.27624781717274693,
          -0.21309741472482022,
          -0.04599423110485077
        ],
        [
          0.2235464130948254,
          0.09630079835613045,
          0.05283637586882949,
          0.04515666954833463,
          -0.3001533353121525,
          -0.11888670744801215,
          -0.2975159544395231,
          0.08752234785552991,
          -0.2158226475505226,
          0.04768986348262896,
          0.0076428277740234135,
          -0.035116760033451634,
          -0.048483634470905826,
          -0.22974621023858466,
          -0.3068275207490025,
          -0.1328712582588196,
          0.33086278577327594,
          0.07483236193656921,
          0.11739107370376588,
          0.41788418197923416,
          -0.33044946360075905,
          0.19352477010895125,
          -0.27322549602817053,
          -0.011546213376354133,
          0.17657722333628298,
          0.2643646524716138,
          -0.23660631259846132,
          -0.020124153044485803,
          0.22442883013933485,
          -0.3246238568973636,
          0.08285044870821076,
          -0.046836688939646196,
          -0.4130777516824405,
          0.02932616472244263,
          0.12361680517916951,
          -0.18241995573043823,
          0.0759979546070099,
          0.03467399775981903,
          -0.29317141771100075,
          0.26828875893559345,
          0.21798052787780764,
          -0.2648259335688016,
          -0.14026330303656503,
          0.15415604114532472,
          -0.06355437666217956,
          -0.3535182094211293,
          0.16880041537379387,
          -0.003777522067033538,
          0.37587066792418966,
          0.07149342298507691
        ],
        [
          -0.05941803180138807,
          0.6063542531290981,
          0.06389705539759553,
          -0.19514162818977396,
          0.0640548331372782,
          0.2852137716311538,
          -0.23769561497774908,
          -0.1761763533999006,
          0.02968338946048268,
          -0.6801749642013712,
          -0.27488502238258994,
          0.20366747230944307,
          -0.03378486841180962,
          -0.3805747209263621,
          0.3588738852859016,
          -0.2821070432662964,
          -0.14656169355160972,
          -0.07454630136489869,
          0.01662887930870056,
          0.019688160316429528,
          -0.01089341033832133,
          0.1000436405903118,
          -0.005829128429019525,
          0.07989592490132097,
          -0.6046993826151107,
          -0.00006497941932928861,
          -0.31044529926834874,
          -0.4817468858877262,
          0.2425299771783336,
          -0.20837095181401638,
          0.10545998283774408,
          -0.12504835042445495,
          -0.16885597789810022,
          0.09673095345497132,
          -0.1859700093345725,
          0.07453485727310181,
          0.07613849639892578,
          0.23288958072662355,
          -0.08882148866022781,
          0.20925624200637513,
          0.3441389322280884,
          0.33687726343451513,
          0.10958414977897928,
          0.08983321189880372,
          0.6013451264658901,
          0.5447057366472058,
          -0.09526067657288535,
          0.1658613399274603,
          0.049778627469935846,
          0.014453491568565369
        ],
        [
          0.12626010263456133,
          0.10563009745097098,
          0.09827919781351391,
          0.007466185433961216,
          0.05603162669466045,
          0.2639521684906029,
          0.16151712315074523,
          0.0826186976802253,
          0.2604692882433261,
          0.31828802494541264,
          0.22903921381104528,
          0.050051005276415955,
          0.09737837044661128,
          -0.2950304524213141,
          0.04357668925537111,
          -0.20743396282196047,
          -0.33359346754446206,
          0.13010178804397585,
          -0.020115436613559724,
          0.26346451894597095,
          -0.15995899246023013,
          0.19262055315610216,
          -0.05630916549719134,
          0.3113538434210335,
          0.1587863891923738,
          0.11341220368432571,
          0.058133138389069534,
          0.01371993858044679,
          0.18184872164086607,
          0.16393173328301036,
          -0.18934731995086848,
          0.24246275649506766,
          0.001146634175017762,
          0.16305274963378907,
          -0.0852876206212144,
          0.12757105827331544,
          -0.1593183755874634,
          0.025871366262435913,
          -0.13225644718568574,
          -0.07005721947667191,
          -0.11331745386123658,
          -0.09630862300015985,
          -0.3362311072450699,
          0.1753199338912964,
          0.20041039949870326,
          -0.17774727761602008,
          -0.2904268178680406,
          -0.1458194224111175,
          0.16113342981433634,
          0.1251041531562805
        ],
        [
          -0.010302175922961586,
          0.1809720160788247,
          -0.2520080423205172,
          -0.14716491698720582,
          0.1183215502171207,
          -0.019062605912480293,
          -0.05480337240721565,
          -0.5068615651683126,
          0.13071800989726992,
          0.0746962411891199,
          -0.30330763092749724,
          -0.008063891920155034,
          -0.03781181743697333,
          0.17780889088685162,
          0.24900093117478092,
          -0.14797736406326295,
          0.22879238317873365,
          0.13677083253860475,
          0.15230314731597902,
          0.45741304954701895,
          0.16585191120452358,
          -0.13414455915997514,
          0.37137924335831424,
          -0.25735135074459903,
          -0.06359219180628048,
          -0.15227883066398468,
          0.04483828700571098,
          0.267627886368184,
          0.3277060433554118,
          0.001799309974956004,
          -0.10009628024715919,
          -0.11112188957497102,
          -0.16392513093739816,
          0.1905681371688843,
          -0.3292576063311683,
          0.1729052543640137,
          -0.006518813967704773,
          0.0344102144241333,
          0.3289844690052105,
          -0.14983325217934845,
          0.33234572410583496,
          -0.3287768761389437,
          -0.2872457730894712,
          -0.31567828655242924,
          -0.147839319484835,
          0.07286453486987837,
          0.14766587424775712,
          0.04148721953724748,
          0.08021905750936803,
          -0.2346653938293457
        ],
        [
          -0.36310251791408343,
          0.009315071905864832,
          0.31529123953595645,
          -0.12993382556336275,
          -0.23681127065081561,
          -0.35505244172563444,
          -0.20184937684929616,
          0.3365490168324578,
          -0.04465012406751628,
          -0.24373184234472747,
          -0.08685196866448189,
          -0.0967673278367471,
          0.11037635624128998,
          -0.19420115302381882,
          -0.25977613982314846,
          -0.03760339617729187,
          -0.010280764586477033,
          0.14340875148773194,
          0.11010640859603882,
          -0.02007733013508213,
          -0.4149264824140776,
          -0.19146706863635868,
          0.034729983433679716,
          -0.28279185112572636,
          0.06201263302629966,
          -0.16190544591687303,
          -0.13065106083531872,
          0.32674229637976504,
          0.14280799044116124,
          0.34330152486516413,
          -0.10648579930504874,
          0.29205233774943,
          0.1629468065896098,
          -0.5990005493164062,
          0.05575327959804472,
          0.308444881439209,
          0.15561147928237917,
          -0.08826423287391663,
          -0.065374897823981,
          -0.27001033264442703,
          0.04125849902629852,
          -0.40263296731600706,
          -0.15416715662162886,
          0.22383286952972414,
          -0.05557594085215182,
          -0.026955358469342206,
          -0.06957856751432574,
          0.5720940436262733,
          0.21141912185613115,
          -0.15512827634811402
        ],
        [
          0.33734453087865085,
          -0.03368313985573347,
          0.09336137889997359,
          -0.240674815236624,
          -0.15750036381775476,
          0.15571951964066436,
          -0.30191212180210686,
          -0.1431167715599481,
          0.11570136027445248,
          -0.24318749741171355,
          -0.2477038465763591,
          0.01272039827624584,
          -0.45926811180976407,
          -0.17315188588865424,
          -0.06939677844090542,
          -0.26906139850616456,
          -0.22603157150810804,
          0.13317458629608156,
          0.058490616083145146,
          -0.14776789892383163,
          0.12591033740095708,
          0.3659090203241427,
          -0.30592151785191934,
          0.015676638840019685,
          0.5081240802355856,
          0.13254782306543575,
          0.14942161358936965,
          0.06200127719562961,
          -0.19502617740299383,
          0.28494212124262924,
          0.11617601221555875,
          0.036028249046896416,
          -0.03179181413781441,
          -0.34954504966735844,
          -0.00890125711344451,
          -0.13834254741668703,
          -0.026370853185653687,
          0.13419507741928102,
          0.14166266669094954,
          0.15883728820459686,
          0.45101284980773926,
          0.17047456822088117,
          -0.17981759267908443,
          -0.1636603832244873,
          0.4497059978295699,
          -0.18724723935945756,
          -0.013490082089441982,
          0.3834297290854957,
          0.3592436011014964,
          -0.010926406085491181
        ],
        [
          0.13805988779824024,
          -0.279526578639228,
          -0.17521071202537347,
          -0.10771720118287713,
          -0.010065974154392436,
          -0.10464533314175847,
          0.021094205632064628,
          0.45415592568265223,
          0.04983874707664013,
          0.07357953281094706,
          0.0022689888708441377,
          -0.06466801294266418,
          0.28530163897226407,
          -0.3262541190099913,
          0.07469632553097058,
          -0.21915545463562014,
          -0.005515008341303439,
          0.02381006479263306,
          0.18410130739212038,
          0.24426457196581894,
          0.16446039991512484,
          0.3356208300986626,
          0.3682793616228471,
          0.054408522368913,
          0.09179115500527013,
          -0.5467761399576573,
          0.11493066257256603,
          0.009099915948649394,
          -0.35578361261730496,
          -0.06459863616721516,
          0.28740309069970515,
          -0.24608304203817455,
          0.27850797004499694,
          0.09495986104011536,
          0.030654863610186236,
          -0.028465458750724794,
          0.16598541736602784,
          -0.28627886772155764,
          0.40134627227903075,
          -0.11622673818430931,
          -0.1530566453933716,
          0.20121891491760188,
          0.17970267405719878,
          0.26507833003997805,
          0.2566914923446599,
          0.08173821203926022,
          -0.2952580605453988,
          -0.07438429186541638,
          -0.005288981631703727,
          -0.0034365139901638034
        ],
        [
          -0.4350473934752286,
          0.18733410745896506,
          0.3504770892734537,
          0.32718650507736713,
          -0.3310305502585524,
          0.06601921456985446,
          -0.3992166356581202,
          0.4116327057224002,
          -0.441193687513533,
          -0.03468451386369889,
          0.2124353029387219,
          0.295547576667251,
          0.11279665945698729,
          -0.39282493352670406,
          -0.16611741895640042,
          -0.05366369485855103,
          0.12415359933644146,
          0.1975492000579834,
          0.13240817785263062,
          0.5134861210928836,
          0.19903979517662965,
          -0.05784234838914911,
          0.28830312109237566,
          -0.07724334464648505,
          0.021350458325404338,
          -0.04577293839352693,
          -0.5073871836555642,
          -0.034624076170545845,
          0.11847776016645795,
          -0.11057249256010761,
          -0.10792533807320814,
          -0.17092173476952732,
          0.05543308171658214,
          0.30058510303497316,
          -0.03862186980518297,
          -0.1044251561164856,
          -0.12154577970504761,
          0.40341758728027344,
          -0.24428947274037952,
          0.1640668548525955,
          0.022282360494136812,
          0.4527540612965933,
          0.2522571180340523,
          -0.017663605511188507,
          -0.32984068483076906,
          0.2901765483493814,
          0.2704345955245947,
          -0.1509760308015003,
          0.0795658667273271,
          -0.1601533055305481
        ],
        [
          -0.14462680983506954,
          -0.39222061636505384,
          0.28103927704644394,
          0.04983638521914835,
          0.19766179288867236,
          0.36075992710270804,
          0.17634612388588772,
          0.12921569665039,
          0.17939756382512842,
          -0.27869473389045746,
          -0.04432830879280571,
          -0.18629932405426305,
          -0.16622230394148466,
          0.05782208658482154,
          0.1485844392224267,
          0.41164278984069824,
          -0.33606814007913843,
          0.03466608226299286,
          -0.014182087779045106,
          -0.028977638871252875,
          0.15982454007911406,
          0.18356099655262956,
          -0.21653934695227645,
          0.0630630061485667,
          0.2752765736406482,
          -0.1585608954779557,
          0.40765766384284174,
          -0.08193708680716148,
          -0.14837138127685792,
          -0.02724007348061171,
          -0.0706926466670667,
          -0.3876753323253971,
          -0.06868194646825947,
          0.3191404819488526,
          0.500743270172357,
          -0.11340829133987428,
          0.1810549259185791,
          0.026505890488624576,
          0.05886244780661923,
          0.2628423926229908,
          0.17041430473327637,
          -0.006187850643403357,
          -0.2514707129368805,
          -0.22479617595672607,
          -0.08316156419573333,
          0.15918088886093998,
          0.17089932090916074,
          0.16251644557743594,
          0.2528750074036652,
          -0.48061532974243165
        ],
        [
          0.2563047441843387,
          -0.1356909998892456,
          0.22447924943454042,
          0.08957044682207507,
          0.12274544158302776,
          -0.12016138698118543,
          0.059175986412312746,
          -0.4836172497756502,
          0.14418898549593637,
          0.033773497619941674,
          -0.5440733558297435,
          0.1672205950391127,
          0.4140768059835159,
          -0.27189849100074615,
          0.3534678142915017,
          -0.14995108842849733,
          -0.5305262357652166,
          -0.07157849669456483,
          0.06522728800773621,
          0.10111101501639817,
          -0.027242910602319943,
          -0.026729926972903426,
          0.12828371545219502,
          -0.034917825055337845,
          -0.1427588773376767,
          -0.03152517772813942,
          -0.03153127363888168,
          -0.07413459084508647,
          -0.17534475985162026,
          -0.16699228716630127,
          0.003185899474416302,
          0.04942398315281307,
          -0.03752143867040294,
          -0.03673198223114014,
          -0.02190309331745602,
          0.1628937363624573,
          0.13601597547531127,
          -0.3499818086624146,
          -0.08417521417107252,
          0.10989522733793261,
          0.10307946205139161,
          0.1613707021330102,
          0.04791886198700159,
          -0.17070735692977906,
          0.3183114758492871,
          -0.27025224833004996,
          0.1851753148887796,
          -0.09830753294853165,
          -0.3682024429823395,
          -0.07923176288604737
        ],
        [
          0.1610402910376693,
          -0.13425809236672362,
          -0.28052657080366966,
          -0.18712163490814074,
          -0.21816802675899985,
          -0.2877316025696598,
          0.03558362461625346,
          0.17988161171851078,
          -0.1718372414494442,
          0.13817665287034336,
          -0.15880765507368827,
          0.0400307767722588,
          0.0897676497181534,
          0.26642004215006854,
          0.1273878964000008,
          -0.19982261657714845,
          -0.05230644379767654,
          -0.04423765540122986,
          -0.09327208399772645,
          -0.04322464825360493,
          -0.08937049317388059,
          0.0704643100302502,
          -0.03866324111212247,
          -0.21217572908123564,
          -0.3887950501950644,
          0.03836754261829598,
          0.06254818032876702,
          0.4568083474671428,
          -0.10249659056276803,
          0.176280343283,
          0.17912394775847157,
          -0.05242731900105041,
          0.0437100805573091,
          -0.08596874475479127,
          0.589967569568249,
          -0.301686429977417,
          -0.007929229736328125,
          0.27682459354400635,
          0.0007135882526168281,
          -0.12090262603891001,
          0.046576526761055,
          0.13513676386370738,
          0.12361267557591334,
          0.05632866024971009,
          0.1334404697785084,
          0.1507341222696033,
          -0.25898819245918503,
          -0.05778320622709008,
          0.11389536105159595,
          0.0977240025997162
        ],
        [
          -0.09322625771083874,
          0.11272517596766474,
          0.17446303881285108,
          -0.2470858512393983,
          -0.3147139123600543,
          -0.22522470113562496,
          0.3316152246354813,
          -0.26158910541916275,
          -0.07249483433157111,
          0.021268661781630182,
          0.20710669764893053,
          -0.33623990210316074,
          -0.009555050722772953,
          0.2431249353450872,
          0.31476575254583766,
          0.0818623960018158,
          -0.10639404229348329,
          0.35153667926788335,
          -0.3343894243240357,
          0.19499662087203523,
          0.14473487288697875,
          0.20514060225770972,
          0.08930795184305143,
          0.06892063151995656,
          0.2696413414317123,
          -0.27475939135696814,
          -0.1393618137921503,
          -0.0026158855815892165,
          0.08339152382059134,
          0.019787967457027406,
          0.3044025637831378,
          -0.1539382890008153,
          0.14033232135058238,
          0.07688953876495362,
          0.566098003975136,
          -0.28043732643127445,
          -0.10920141935348511,
          -0.0913580060005188,
          0.24957152487553302,
          -0.17209257666250605,
          0.3315886020660401,
          0.36499168506410046,
          0.1600087878537433,
          0.08747521042823792,
          -0.33300624931767664,
          0.020462190281128,
          -0.2806227361850648,
          -0.12442635781958271,
          -0.010448874150001121,
          -0.061774277687072755
        ],
        [
          0.11743230913886775,
          0.06724463267155084,
          -0.4120571373230235,
          -0.191006463558568,
          -0.24823204558595738,
          -0.04003935171537392,
          0.25108811032557565,
          0.1045725142708663,
          0.04344661550312113,
          -0.26020352470684605,
          0.4916357390215515,
          0.07974803421356755,
          0.5210109805614787,
          -0.26659670954999803,
          -0.11054475087509898,
          0.5199323177337647,
          -0.2514437813388984,
          0.0837411642074585,
          -0.06764105558395386,
          -0.08928958182763935,
          0.4039432662972616,
          -0.2437660645788995,
          -0.003462852285351218,
          0.23112016103584304,
          -0.27265663455054423,
          -0.5435040449295788,
          -0.404848375468044,
          -0.16746850447547762,
          0.02631593229405749,
          0.07983878373245384,
          -0.033451410409597385,
          -0.08236670612055151,
          0.22189952477487976,
          0.15363059043884278,
          0.10413958393616339,
          -0.12339342832565309,
          0.15551455020904542,
          0.03624193668365479,
          -0.12019342020945248,
          -0.11702094774307437,
          0.24572954177856446,
          0.44318054681649494,
          -0.0816307549782122,
          -0.41561365127563477,
          0.21057260794468416,
          -0.2829932688003788,
          0.1697463600499135,
          -0.10773024478289443,
          0.43588742667757735,
          0.022448900341987613
        ],
        [
          0.035925893279680925,
          -0.30225008981683815,
          -0.6833472790056258,
          0.15696309067497516,
          0.011717932930973153,
          0.011821260384964817,
          -0.16632773808105963,
          -0.28519412790568144,
          -0.3047629483187185,
          0.1279489736913626,
          0.1870857577947984,
          -0.36652795023900137,
          -0.0767294997755067,
          -0.17475183882411652,
          -0.3730582775484646,
          0.03982312083244324,
          0.20426023536948004,
          -0.04466994106769562,
          -0.2844944715499878,
          -0.03569800671926516,
          0.29668636579966756,
          0.4443723960320776,
          -0.03393176381027188,
          -0.07836501352079402,
          -0.4172966748880514,
          -0.266086070922823,
          0.10566336820197697,
          -0.025160280814936854,
          0.10445844172517252,
          -0.018046161536132182,
          -0.30686088701425496,
          -0.23201166729215666,
          0.08432790924118236,
          -0.1649135708808899,
          0.2862047764214063,
          -0.291782546043396,
          0.33741958141326905,
          -0.13329923152923584,
          -0.03455809425667139,
          0.054989200766767686,
          -0.0688015103340149,
          -0.37526545217974344,
          -0.17379318889992262,
          0.3044920444488526,
          -0.3153980161474041,
          -0.48791084902820225,
          -0.17601337201173317,
          -0.08107034817469892,
          -0.30074373060348114,
          -0.15051454305648804
        ],
        [
          -0.02874578221833121,
          0.024981643675018435,
          0.004744436499803595,
          0.15357122884752536,
          0.030832114937943664,
          0.07795409512388976,
          0.33797514508404664,
          0.24559781199804884,
          -0.6037967245071,
          -0.12424704800160133,
          -0.3530140765057385,
          -0.12899866233965016,
          0.13446785235959074,
          -0.11044945025913268,
          -0.12406681587637051,
          0.26339430809020997,
          -0.4223929394531008,
          -0.01876287013292313,
          0.10975177288055421,
          0.042166937301477546,
          -0.2718206139082406,
          -0.06794046498360971,
          0.1486221125755717,
          0.004013956097918695,
          0.10010143405992684,
          0.1357629997539094,
          0.07644365969668343,
          -0.260013166143091,
          -0.09304012462159571,
          0.17539826863024066,
          -0.7647356477047202,
          0.1930501968702485,
          0.13537311314275743,
          -0.21683595180511475,
          -0.13952395534802176,
          -0.04076825976371765,
          0.08268699049949646,
          -0.07480533123016357,
          0.2055269397467571,
          0.05524295844644693,
          -0.15731427669525147,
          -0.12044053836513129,
          0.030006443953828423,
          0.14567480087280274,
          0.2435596365911243,
          -0.047329077961713685,
          0.03950335633623816,
          0.03555990640957313,
          0.22389905330983045,
          -0.19724889993667605
        ],
        [
          0.24004956917624262,
          -0.46056188203057696,
          0.044298503346873117,
          0.04988194515289857,
          0.027180930874765995,
          -0.45698196980046496,
          0.2853275741755129,
          0.2330346488817119,
          -0.012855203820091587,
          0.05074053176696323,
          -0.16895289644346817,
          0.08051881292294498,
          0.32444452312177147,
          -0.3186978906806584,
          0.5981782923207711,
          -0.08738579154014588,
          0.13215614278421417,
          -0.16522215604782106,
          0.07808112502098084,
          -0.1843491717108307,
          -0.1967906573389372,
          -0.19926862392870678,
          -0.16446516422723725,
          -0.02557143306262696,
          0.2551767666831918,
          -0.27931659639312983,
          -0.24210331911418248,
          0.05435710420723835,
          -0.12641829498534823,
          -0.27809642141681196,
          -0.007709471131236093,
          -0.06249768582377342,
          0.10227270780945041,
          -0.007952014356851578,
          -0.10640634810174757,
          -0.013647991418838502,
          0.20464808940887452,
          0.2628208875656128,
          -0.005985086164178494,
          -0.2397296640952173,
          -0.3022583246231079,
          -0.4804646435140739,
          -0.26893314161817844,
          -0.17046394348144533,
          -0.1005883828516871,
          -0.422015854172281,
          0.2554781427712514,
          0.24338509032565128,
          0.31578828094158257,
          -0.1025780439376831
        ],
        [
          0.010607870776637286,
          -0.09515346930349554,
          0.3764957580827672,
          -0.27706808106137254,
          -0.08455502639450534,
          0.3771232927797111,
          0.5092206821461135,
          -0.09830541124361117,
          -0.10655096439123576,
          -0.578354474792424,
          0.39098737644403914,
          0.05631833161048137,
          -0.49203064186332607,
          0.15901138025890674,
          0.16356644369195505,
          -0.07087992429733277,
          -0.2773910743504087,
          0.14602506160736084,
          0.04678906798362732,
          0.08817306909543646,
          0.35736366414478055,
          0.20923567645644758,
          0.2659942011889394,
          0.11349244298164465,
          -0.2242298407763596,
          -0.23122095183574412,
          0.1778561650779057,
          0.19978899127095057,
          0.15495551372591654,
          0.16508269529541875,
          -0.17471809130837726,
          0.10616106650161172,
          -0.1997651044064322,
          0.012476027756929398,
          0.18345808907232694,
          -0.13537288904190065,
          0.39058158397674564,
          0.22681589126586915,
          0.2755240928776029,
          0.00021024477140038422,
          -0.27778987884521483,
          -0.13590712078726366,
          0.1240753077697541,
          -0.05580060482025147,
          0.23859242751275844,
          0.09662482776870249,
          -0.025510636472913854,
          0.10678168832957569,
          0.3287298199168498,
          -0.14642983675003052
        ],
        [
          0.16627479578184573,
          -0.012748231918609099,
          -0.020347820610914547,
          -0.05733944980267422,
          -0.36317829183636535,
          0.3318800138504539,
          -0.24561240372395646,
          -0.16388074876690145,
          0.14539730479482477,
          -0.006908938946527217,
          -0.17472685234600352,
          -0.12357448283259809,
          0.033406223477843604,
          -0.12327881213269656,
          0.13875552476666073,
          -0.23284382820129396,
          -0.004716403737536511,
          0.306106972694397,
          0.040272438526153566,
          -0.16410701148953608,
          -0.32930919718305746,
          -0.0728871298130689,
          -0.22947665916138368,
          0.21034035665413262,
          -0.28942169155944913,
          0.3880092743401436,
          -0.4387019335339052,
          -0.0390781624078776,
          -0.27703242298965997,
          0.16065273921128612,
          -0.14187635339933272,
          -0.3679706594176505,
          -0.01006359146752776,
          -0.08220174312591554,
          -0.4279868469143743,
          0.09090322852134705,
          -0.47852511405944825,
          0.2352674722671509,
          -0.17912267907290175,
          0.18201218798520089,
          -0.12011163234710694,
          -0.21503973853085986,
          0.10540741514767996,
          -0.11682795286178589,
          -0.35358828845719287,
          -0.09393912443629354,
          -0.22543864974665512,
          -0.01719005730419505,
          0.3057554965280455,
          0.1925336718559265
        ],
        [
          -0.012243568307658237,
          -0.05834437296542161,
          -0.09375643547748178,
          -0.21203474690635163,
          0.029872064891601924,
          -0.024007313709808905,
          -0.1483905207345748,
          0.04126905702618668,
          -0.4744696935674871,
          0.478712184221337,
          0.08668606769812826,
          -0.3398137236731429,
          -0.10437117990131789,
          -0.30345707100775615,
          -0.08050687408300228,
          -0.17902188301086427,
          0.1703418096192338,
          -0.38414669036865234,
          -0.07087867856025697,
          -0.40908042932873107,
          0.12925666093519395,
          -0.0802901807704678,
          -0.32252642812196414,
          0.3649351313923522,
          0.2943581010423218,
          -0.2096489162362526,
          0.058509064044870884,
          -0.04323887959544098,
          0.03255829433702204,
          0.4447015024092939,
          -0.13200081823527376,
          0.3681226153128778,
          -0.13502557584392144,
          -0.01871078759431839,
          0.39116174691819283,
          0.055043441057205204,
          -0.40638833045959477,
          0.044960576295852664,
          -0.378471753206414,
          -0.34101787801363254,
          -0.188528573513031,
          0.1227000306286499,
          -0.23117016778983188,
          -0.28025169372558595,
          -0.10115293548258737,
          0.05052277032162073,
          -0.13170595393712614,
          -0.2556988650046366,
          -0.4443369923536885,
          -0.15524049997329714
        ],
        [
          0.306959175459931,
          0.2221015336364769,
          0.3001192865916224,
          -0.008039291541431452,
          0.062137086789710166,
          0.26388915567306986,
          -0.0943344300024577,
          0.11194975312826347,
          -0.3630144656171172,
          0.13892903648682514,
          -0.06237964607147375,
          -0.2211323922247107,
          0.2116168216141656,
          -0.16555977528606827,
          -0.2602639829038806,
          0.30736367702484135,
          -0.2615874817267387,
          -0.13120100498199463,
          -0.1366508960723877,
          0.24115860570214293,
          -0.5247349980306424,
          0.3155084179449006,
          -0.031484993478747246,
          0.03933469155297909,
          -0.2955962271187459,
          -0.024996179728865014,
          0.3041582347757317,
          0.02563194141087745,
          -0.2280019356331195,
          -0.13645551177483162,
          0.06621900126308261,
          0.05539654400566002,
          -0.11926585118689614,
          0.12091457843780518,
          0.03668682080308655,
          -0.21554319858551027,
          -0.38298327922821046,
          0.10009764432907105,
          0.37701612208910834,
          -0.12810117944307248,
          -0.02820234298706055,
          0.2817701934923722,
          0.3446629942980722,
          0.013047178089618684,
          0.27162853501739703,
          0.2922837911196693,
          -0.10081467838378314,
          -0.37527527418151924,
          -0.08468208392876285,
          0.07384586334228516
        ],
        [
          0.08629725102623709,
          -0.08187529329692401,
          -0.24306922617375082,
          -0.31680160032593,
          -0.2928710475838052,
          -0.08690493027320277,
          -0.23808935884555693,
          -0.01965465664573427,
          -0.14026535530230885,
          -0.08561420958072076,
          0.4808562803414494,
          0.17216505149915462,
          -0.02266898207894988,
          0.038830335626362664,
          -0.2780778189504969,
          0.26782984733581544,
          0.15637233160843622,
          -0.10639902353286744,
          0.04585763514041901,
          -0.14872830885413202,
          0.11615362823394916,
          -0.20670139872539448,
          0.09542103662277081,
          0.340573158404068,
          0.0890637080267093,
          -0.13298042164571555,
          0.27792237507898276,
          0.41815605848121684,
          0.1402906809632759,
          0.06835310814438884,
          -0.23274953261614362,
          0.046653452789624295,
          0.41215485312760786,
          -0.40337605476379396,
          0.29201482631749676,
          0.029558375477790833,
          0.30267133712768557,
          -0.02558700442314148,
          -0.35054390087719356,
          0.3998519605482619,
          -0.23187658786773682,
          0.15204954168489054,
          -0.021450752550010978,
          -0.007917258888483047,
          0.04609838541115173,
          -0.18070245447575173,
          -0.02516413400521851,
          0.06595055143385674,
          0.18857443927378867,
          0.025004303455352785
        ],
        [
          0.10400395263220626,
          0.3050618827437806,
          -0.14526330079363767,
          0.0638769425370852,
          0.08293007675541773,
          0.2333273747395723,
          0.05190545474550155,
          -0.13482250275739086,
          -0.00158121226502419,
          0.22721847202591663,
          -0.05543900448304172,
          0.1277553557512688,
          -0.02231483577915887,
          0.04472467736024506,
          -0.28179938655217607,
          0.01134241595864296,
          0.030043340894342224,
          -0.2967200994491577,
          -0.14808807373046876,
          -0.10393539427986842,
          -0.4509204407369455,
          -0.40367204887212554,
          0.2661184940091598,
          -0.250057971344926,
          -0.20386420081309742,
          -0.48267537891913104,
          0.25920384228475796,
          0.18610903929846934,
          0.09368186465106598,
          -0.001417992347875582,
          -0.1299829573353785,
          -0.12132819423699805,
          -0.153302694669762,
          0.13165348768234253,
          0.05358506189703445,
          0.18252568244934084,
          0.4097790241241455,
          0.14143372774124147,
          0.15108803165100995,
          0.2090272406165939,
          -0.3084019660949707,
          -0.013124528333890126,
          -0.41479222119769305,
          0.31545042991638184,
          -0.05917693971638979,
          0.38976521645260365,
          0.23854471234790972,
          -0.24190566768585808,
          -0.33081379866853805,
          -0.2248034715652466
        ],
        [
          0.18213862993364055,
          -0.0023760729598943137,
          -0.29551017006137764,
          0.0449300263865793,
          0.3201098648682961,
          0.35587610172439227,
          -0.04127478781048647,
          0.12031757162903517,
          0.1128382516869329,
          -0.36007230169041043,
          0.006953177658983505,
          -0.024598767066143126,
          0.013254585627080123,
          -0.20217257546384437,
          -0.3530293268218357,
          0.0648413598537445,
          -0.24926615273596442,
          -0.24557924270629883,
          -0.2450793504714966,
          -0.09316943601510756,
          0.3504855671620212,
          -0.03391320108663413,
          0.22911067966611035,
          -0.5518311627069712,
          -0.21784143919894153,
          -0.22183070837405647,
          -0.16090720680394155,
          0.11525267951701758,
          -0.19379950779297025,
          -0.2539747979233379,
          0.2761316757985976,
          -0.14629352245938024,
          0.09187677995446776,
          -0.1329994559288025,
          0.21581181691953527,
          -0.07670943140983583,
          0.15903156995773315,
          0.12420088052749634,
          0.44937267109571155,
          -0.02531352738497532,
          -0.19506626129150392,
          -0.20951069422688176,
          -0.0673588243117563,
          0.07506285905838013,
          -0.08088055189132137,
          0.30454035083553405,
          0.07409236895251611,
          -0.18017838150390664,
          -0.17895653641161907,
          -0.12767609357833862
        ],
        [
          0.16478956769819145,
          -0.21938284259649582,
          0.34716529143667507,
          -0.10621699186580442,
          -0.1387174630509031,
          0.17816256503253358,
          -0.17566974585716186,
          0.022053833828488724,
          0.36731509180049143,
          0.04068096735430656,
          0.03358622446582231,
          -0.11227967632742264,
          -0.191751877023984,
          0.32485622807387465,
          -0.07491598931610532,
          0.3795982599258423,
          -0.25283680434110545,
          0.25099055767059325,
          -0.041063353419303894,
          0.11995672101074221,
          0.229317787835145,
          0.17080452882369512,
          0.2229171490630625,
          -0.3606030427897262,
          -0.013910250584050718,
          0.4814008561711818,
          -0.08123447676207048,
          0.10707491435059938,
          -0.0012753608187263134,
          -0.009816488521298286,
          -0.2518077577040707,
          -0.0914263001510577,
          0.33085106373371376,
          -0.01581212729215622,
          -0.2995874971878301,
          -0.18081308603286744,
          0.1746857285499573,
          -0.1894299864768982,
          -0.17808127883783173,
          -0.2092502253853148,
          -0.25182604789733887,
          0.3692516408541025,
          -0.09481621650687601,
          -0.06430138349533081,
          -0.13459804874273518,
          0.23326300872183497,
          0.005826841990047187,
          0.0696111499596243,
          -0.012633337658849974,
          -0.07146433591842652
        ],
        [
          -0.14555918033240398,
          -0.35552511382477614,
          -0.13512830920510982,
          0.5451850883999065,
          -0.2666540050533521,
          0.047072457694393,
          -0.06953714942988506,
          0.22560535626506717,
          0.46855024665987327,
          -0.07062352760760407,
          -0.1513715200258581,
          0.16839012566450098,
          0.011858150109613556,
          0.41887389353067606,
          0.3005856786418816,
          -0.1337594270706177,
          -0.03316376217653805,
          0.08460777401924134,
          0.10013777017593384,
          -0.2111247067077075,
          -0.46412876611514114,
          -0.3339256751200964,
          0.15568041232163077,
          0.010242846817271603,
          -0.3198599164247391,
          -0.10693530697902337,
          -0.5096613164480605,
          -0.09476377287234257,
          -0.3161105037740827,
          -0.02668342994202472,
          0.029291092329697784,
          0.015430447025098706,
          -0.016518610267973237,
          0.258335542678833,
          0.5888953637059959,
          0.17039287090301514,
          -0.0379264771938324,
          0.15039355754852296,
          -0.09362435519692615,
          -0.2115023464255885,
          -0.17424892187118532,
          -0.004739379805256613,
          0.24985580605180258,
          0.4448271751403809,
          0.25630962681395997,
          0.10276481322950798,
          -0.09146725499542444,
          0.05476443395996032,
          0.06592903656567994,
          -0.02445061653852463
        ],
        [
          0.5012480113504584,
          -0.1984586966587174,
          -0.19915375750164965,
          0.09821374762016771,
          0.41712059949590596,
          -0.3714213715839921,
          -0.27022590271375874,
          0.28519701236428624,
          -0.17457816465308623,
          0.3913484758289708,
          -0.28951564126334384,
          0.19554084456063134,
          -0.10342533891416021,
          0.2082390463366581,
          -0.3284363013571579,
          -0.32124149799346924,
          0.19474222416069145,
          -0.10586152076721192,
          -0.18373861312866213,
          -0.3603420964759747,
          -0.2658812475219101,
          0.22974127775728576,
          -0.236478492663498,
          -0.06890844234261458,
          0.4311204210537032,
          -0.23173526056768026,
          0.18007880284721103,
          0.013262780887146861,
          -0.04212762821187846,
          -0.15148092451781778,
          0.3552066456889553,
          0.03885120519822628,
          -0.16268806154053161,
          -0.2770596265792847,
          -0.3425222906915272,
          -0.204909086227417,
          -0.43119678497314456,
          0.2347876787185669,
          -0.0371479854245164,
          0.091276831060265,
          -0.28377485275268555,
          -0.005230271348219882,
          -0.12498822576396298,
          0.015117956697940827,
          -0.0757257354808928,
          -0.30531106035809036,
          0.20949694048875464,
          0.1430506147921519,
          0.015793625054353642,
          0.20644676685333252
        ],
        [
          0.24385239631945405,
          0.33173262055497954,
          0.01860473269801221,
          -0.05841785181835013,
          -0.06856766615931671,
          0.1954851042096038,
          -0.13097966881045825,
          -0.14460435823625226,
          0.12770360748827403,
          0.1022926957632155,
          0.08249156339747701,
          -0.28332546271678893,
          0.02851716758259045,
          0.25919650491420554,
          -0.1892560360298283,
          -0.05362766981124878,
          -0.06858801684200584,
          0.3038436651229859,
          0.18016172647476197,
          -0.30619114130508,
          -0.45653501784285433,
          0.012181612687706686,
          -0.1543167633338583,
          0.16251534379431204,
          0.019022266144493476,
          0.2192159591857643,
          -0.27977585186010123,
          -0.05776515755241181,
          0.09620718914853645,
          0.10073563419510884,
          -0.2066320331475322,
          -0.1206843461582579,
          -0.04475221945381009,
          0.008935833722352982,
          0.20714179974180313,
          -0.05509369969367981,
          -0.030610811710357667,
          -0.41883549690246585,
          -0.2191274530500624,
          0.35906032545717953,
          -0.3429415225982666,
          0.33381944589386703,
          -0.0845123449364164,
          -0.3926403522491455,
          0.34448827679735006,
          0.24281344229559465,
          -0.08341113221007351,
          0.21560080304209858,
          -0.06462380127913402,
          0.010185255110263825
        ],
        [
          0.07423682440635146,
          -0.07653903391707084,
          0.15837021200717719,
          0.07903877314636279,
          -0.1725170932527349,
          0.09470881355353811,
          -0.15739877887258674,
          0.007388142273979375,
          -0.1754035152652825,
          -0.1142665666660974,
          0.33855293981045154,
          -0.13333418643221914,
          -0.35096651579151844,
          0.261189727324737,
          0.0774727110932341,
          -0.1301228404045105,
          -0.09688660096120207,
          -0.18275021314620973,
          0.18756877183914186,
          0.1474524873376213,
          0.1218464398731386,
          0.03972712695514969,
          -0.5314322659229861,
          -0.25844614187735226,
          0.0923320028361342,
          -0.680709744134041,
          -0.0323434290159143,
          -0.1263204149707314,
          0.15084646136384625,
          -0.08762700353395105,
          0.2783114900421847,
          0.1058223583656084,
          0.04576803897258466,
          -0.19466791152954102,
          0.14206860366374793,
          0.4758565425872803,
          -0.3420888900756836,
          -0.20474689006805422,
          0.31874404703696285,
          0.09559970653659243,
          -0.059185922145843506,
          0.23592434481273186,
          0.04569810510227917,
          -0.13052438497543337,
          -0.16399510529387232,
          0.2245507392174145,
          0.1041711283976691,
          0.23917337819395518,
          0.13147522181366975,
          -0.12279906272888184
        ],
        [
          0.3607900863314366,
          -0.19713069723884635,
          -0.12860090270177899,
          -0.2132304006826294,
          -0.30467705987787835,
          0.15085516097847532,
          -0.2107432326504983,
          -0.19899409684879973,
          0.25831580649816355,
          0.17161279863933418,
          -0.0638171892382112,
          -0.2580267519745836,
          0.03329929808584915,
          -0.3508965966536766,
          -0.1758876925710437,
          -0.07755525708198548,
          0.021443056378845037,
          -0.111046040058136,
          -0.029068979620933535,
          0.35337522122063636,
          0.14763099329162205,
          0.43422691327455537,
          0.09971634522483899,
          0.034702655078493974,
          -0.30245332399843383,
          -0.355998790741197,
          0.08949204468342835,
          -0.09793948115036351,
          -0.22324413567149679,
          0.09532311520642243,
          0.37300301823989557,
          -0.03866356802678767,
          -0.017661221296719855,
          -0.10939297676086426,
          -0.11718434629070137,
          0.39473061561584477,
          -0.2512822151184082,
          -0.03224493265151978,
          -0.08084665607555937,
          0.0005181612486903056,
          0.20926666259765625,
          0.15965513843785475,
          -0.002640573156370109,
          0.22469913959503174,
          -0.16580753849784902,
          0.03319353327615609,
          0.3822388422757736,
          -0.19493507605216417,
          0.10572258876254655,
          0.2997159957885742
        ],
        [
          -0.333627797447345,
          0.026322750949162064,
          -0.1188389886265561,
          -0.2216552155996922,
          0.09443419170179766,
          -0.25238127691070633,
          0.27660184041504093,
          0.021119584194980282,
          0.01251236148851245,
          -0.021278925450597414,
          -0.007592118835496412,
          0.0018222458729610662,
          -0.004011206479475088,
          -0.11653529455425356,
          -0.14764677284334127,
          0.10540870428085328,
          -0.5114175116204605,
          -0.15989663600921633,
          0.001711040921509266,
          0.07868370509716913,
          -0.17260769853190333,
          0.02863113129309185,
          -0.02519470151842049,
          -0.3501824663848791,
          0.18592650022655663,
          0.03956714621042053,
          -0.18680813881147884,
          0.30753023530754914,
          0.12171571407478685,
          -0.17428637838200886,
          0.2883897073759363,
          0.09128048072590744,
          0.18643629617892005,
          -0.1203587532043457,
          -0.16274702925015175,
          -0.16449283361434938,
          -0.1082116961479187,
          -0.4626176834106446,
          0.21439634585576142,
          -0.2590060515068568,
          0.11394248008728028,
          -0.3267283046769805,
          -0.006225925184971878,
          -0.23847033977508547,
          0.009481925346749586,
          -0.3758181680088757,
          -0.20193966609756708,
          0.19591044249339237,
          0.03212532291179042,
          0.034209179878234866
        ],
        [
          -0.22368713607883986,
          -0.5383600436536822,
          -0.17226007375267552,
          -0.12161099718782839,
          0.319913114463147,
          0.16169368249885616,
          0.12028018331992937,
          -0.07823436867825621,
          -0.1710905463886655,
          0.10189052094904621,
          -0.08154553356080994,
          -0.07128699937198882,
          0.4220595711865036,
          -0.13530715885396982,
          -0.0932496283602669,
          -0.049937990307807927,
          -0.15423273409033292,
          -0.2823133230209351,
          0.2544701337814331,
          -0.22756374113770225,
          -0.20488927443939176,
          0.07764105304563988,
          -0.29258430860025514,
          -0.00867647009084463,
          0.014006791230505338,
          0.01953954899396075,
          -0.035830004252628715,
          -0.33287206203275294,
          -0.2218331110517427,
          0.3087017893008859,
          0.26926782962298745,
          -0.10503188268546326,
          0.18825874247845042,
          -0.18797303438186647,
          -0.346859899294382,
          -0.40345263481140137,
          -0.2225996494293213,
          0.09197553396224976,
          0.015658388997268048,
          0.3546088981614238,
          0.167887282371521,
          -0.08669977387940012,
          0.017976212835270726,
          -0.04318235218524933,
          0.10076759230211808,
          -0.07049289140251695,
          0.04488846955410927,
          -0.07213792412807328,
          0.23680653137699653,
          -0.06982204914093018
        ],
        [
          -0.17642318781323807,
          -0.27532904800929914,
          0.20290469623505236,
          -0.07086063203381131,
          0.029871186384548283,
          -0.1056495638269485,
          -0.18329279853657957,
          -0.34792172951573125,
          -0.12723089798464615,
          -0.1985020212211684,
          0.5013252611765648,
          0.2978596883447448,
          0.10505637206744893,
          0.5789379762937731,
          0.2931594055657045,
          -0.26894469261169435,
          -0.29359120761100377,
          0.05357299447059632,
          -0.013874903321266174,
          0.13253537341756055,
          -0.24398866048434265,
          0.3044011287717622,
          -0.05050773391042985,
          0.23682513797887958,
          0.3200223723717662,
          -0.21793483980692294,
          0.10891176695423792,
          0.31427846171104645,
          0.3080806996219565,
          0.17825644832138024,
          0.1194508288951677,
          -0.039775113798077834,
          0.30576683488760276,
          0.1166121244430542,
          0.09374397900943447,
          -0.09454140067100525,
          -0.27053141593933105,
          -0.0347047358751297,
          0.3584686950712411,
          -0.08342537426022613,
          -0.12824456691741945,
          -0.04039722350602385,
          -0.051878883507776606,
          -0.11183499097824097,
          0.1573466235681525,
          0.07481385565697186,
          0.21301395579394614,
          0.1638684426687224,
          0.005743022027654557,
          -0.4206132411956787
        ],
        [
          -0.13127265638843325,
          -0.1759414762585419,
          0.26316827935260023,
          0.09477347252417172,
          -0.13950330578063225,
          -0.1563054350886413,
          -0.2834686560267728,
          -0.2115802916786137,
          0.0419592876645663,
          0.2591955578811855,
          0.12208963481554173,
          0.1864685521767502,
          0.12957649343982217,
          -0.0816311577074312,
          0.32799577946107844,
          -0.2703413486480713,
          -0.13348486087088907,
          -0.10515105724334717,
          -0.3930890798568726,
          0.4182976781612321,
          -0.38316233495343105,
          0.12260210088554689,
          0.4126050254798295,
          -0.12393833081399169,
          -0.17287790271474718,
          -0.4078116251412958,
          -0.0019394574454308158,
          0.28663574119428553,
          -0.0836359390109438,
          -0.12587917184605413,
          -0.6337598350193635,
          0.29987677770427973,
          0.11431236893636554,
          -0.060403913259506226,
          0.35607847394309505,
          -0.10613627433776857,
          -0.06680370569229126,
          0.424804162979126,
          -0.19657416190375424,
          0.07388171882003619,
          0.044704696536064154,
          -0.034597108958475585,
          -0.04702710460719959,
          -0.26133213043212894,
          -0.07281570735862225,
          -0.0008714963765795726,
          -0.18144220390654325,
          -0.1833504078380086,
          -0.2621168247130461,
          -0.16188538074493408
        ],
        [
          0.13112175927109704,
          0.02152370587565969,
          0.3441885904239049,
          0.04150036161017748,
          -0.24218255066000208,
          -0.18407238167059886,
          -0.058198378643280084,
          -0.05253317112407361,
          0.19339724831315136,
          0.42210509408123253,
          0.04025790137743735,
          0.03362038187315874,
          -0.2568193181295056,
          -0.3959159555960252,
          -0.031144903826392834,
          -0.08345717191696167,
          0.023918191949660928,
          0.27139761447906496,
          -0.1020928978919983,
          -0.1475603863449918,
          0.19833589517288283,
          -0.09184828373254776,
          0.11868911995377436,
          -0.1256756884543196,
          0.3547405546472554,
          -0.39099637800342074,
          -0.2156473651619731,
          0.30615709380739486,
          0.3193328353957129,
          -0.1944769254796672,
          0.3674452159334484,
          -0.049562058645826405,
          -0.3145763450798898,
          -0.12602500915527345,
          0.11599251548277913,
          0.0969212532043457,
          -0.17495590448379517,
          0.041192767024040226,
          -0.12049724820153843,
          -0.1422789057906776,
          0.3383572816848755,
          -0.223962859168043,
          0.02523999923653835,
          -0.23297271728515626,
          -0.07204630299828041,
          0.03126346774562589,
          -0.04397015016806852,
          -0.12070374543453119,
          -0.019103340246072905,
          0.06998921036720276
        ],
        [
          0.3478396734341573,
          0.15768910216903362,
          0.1515965651623209,
          0.015632601204256996,
          -0.1514745979577614,
          -0.08762149297360503,
          0.09744366006884442,
          -0.2344121982702721,
          -0.3620339207612679,
          -0.023607966376283627,
          -0.418055380490749,
          -0.22011109306688473,
          -0.28517277226088333,
          -0.01255498161778742,
          0.2927164615251696,
          0.4638370037078858,
          0.1422765660396377,
          -0.1921258568763733,
          0.1462201237678528,
          0.2834409900707488,
          -0.1456914080657487,
          0.1177601222331094,
          0.035672155055867155,
          -0.07441660033259771,
          0.03557383300204986,
          0.18319729810586785,
          -0.0819066613736983,
          0.02829482788038536,
          -0.4879729905152849,
          0.017075069646700403,
          -0.08378381554467577,
          -0.05500383643433942,
          -0.7045174098942563,
          -0.28984048366546633,
          -0.5558228953550735,
          0.12109075784683228,
          -0.18438628911972046,
          0.05466386675834656,
          0.14095748670220426,
          -0.17290042132572772,
          -0.2054917097091675,
          0.2693051745367153,
          0.07765736733331553,
          -0.2465367078781128,
          0.09414168166732365,
          -0.19574361332736445,
          0.07103034771319325,
          0.10330664810086437,
          -0.21924606427312449,
          0.09832808375358582
        ],
        [
          -0.664459700357497,
          0.12399274503557144,
          -0.46094835953557867,
          0.6034947818486537,
          0.09639066665978599,
          -0.17797189988865464,
          0.21074319232523053,
          -0.2086529337188932,
          0.027842649844984288,
          -0.10345466555504206,
          -0.03743720782127954,
          -0.24346148325391487,
          0.09244677891647209,
          -0.1172953402658567,
          -0.071071199917018,
          0.1256986975669861,
          -0.1728409642947421,
          0.16712493896484376,
          0.0971446692943573,
          0.023025033287947146,
          -0.08323069828654764,
          -0.06441233706278633,
          -0.06434881867767621,
          -0.08840197439944422,
          0.08416547774613761,
          -0.07305928550429167,
          0.08598000361927442,
          0.3488095823495922,
          0.2718093088049553,
          0.1840826462772557,
          0.11632478511485844,
          -0.13100448914704993,
          -0.21856984945263624,
          -0.04551271200180054,
          0.31389449263563834,
          0.23983938694000245,
          -0.2916043043136597,
          -0.354829216003418,
          0.3518723196483488,
          0.2796299338581275,
          -0.12531236410140992,
          0.030346924667871707,
          0.024930410027628108,
          0.22063698768615725,
          -0.08302813971670288,
          0.04942109627878964,
          -0.0005067590691039224,
          0.012001920342414714,
          0.3111173648773415,
          0.02933175265789032
        ],
        [
          -0.36520331398003614,
          0.17479284990831948,
          -0.08766784540823691,
          0.2195810255208902,
          0.07568914334252831,
          -0.28510448689675316,
          -0.04928723301440277,
          -0.12247698478321989,
          -0.012409864744347628,
          -0.06143865295957492,
          0.1142323697719576,
          -0.10693998885106337,
          -0.07425013209746091,
          0.05252583322308109,
          -0.1098920535436604,
          -0.05395065546035767,
          0.1140225385427273,
          0.11214448213577272,
          0.010207731276750565,
          -0.05317809979312288,
          -0.4501752833385944,
          0.23706133242239322,
          -0.13579650753978229,
          0.14042211819042097,
          -0.26533758637303895,
          0.25387687191805147,
          0.2610744925394456,
          -0.18866942500082096,
          0.06934727156634866,
          0.262417914558731,
          -0.048463180051338324,
          -0.2611392987898029,
          0.14709073017875876,
          0.3694818496704102,
          -0.4293187220459633,
          0.20496532917022706,
          -0.046571111679077154,
          -0.018233495950698852,
          0.025745418985704788,
          -0.01232102168632439,
          0.17255755662918093,
          -0.389052008207719,
          -0.05515400496847194,
          -0.18711707592010499,
          -0.10783050071194535,
          0.6042565775711151,
          -0.2586897944948633,
          0.0943035476199425,
          -0.0018879955186861116,
          -0.3839902400970459
        ],
        [
          -0.4781909038484655,
          -0.4567468988903941,
          -0.03976445613925167,
          -0.3066421664124451,
          -0.24010033263514016,
          -0.4001777301623804,
          0.0982312696043644,
          0.06911855255045563,
          0.3654256320769075,
          0.04716667708966886,
          0.12229055741231504,
          0.1479125607169807,
          0.4177975182449096,
          -0.2680750846590236,
          -0.0970931940404202,
          -0.1961913585662842,
          -0.46228941606887214,
          0.14288828372955323,
          0.1456266760826111,
          -0.18968339749019753,
          -0.24336900656882776,
          0.0074505827168084285,
          -0.07960337977974205,
          0.04286862464594176,
          0.006673305122188907,
          0.1251461724448848,
          0.21936888983230143,
          -0.337511387743349,
          0.26651765617878415,
          -0.09095247855486667,
          -0.15332484386358247,
          0.16613441304252366,
          -0.16378278658498763,
          -0.25144782066345217,
          -0.008137592938511438,
          0.27223925590515136,
          -0.3635826349258423,
          -0.20826466083526612,
          -0.399128717449847,
          -0.30175767449753743,
          -0.02971218228340149,
          -0.333464019504439,
          0.03710161646263106,
          0.021163949370384218,
          0.050936259030443666,
          0.37481816889221525,
          -0.2908466468646503,
          -0.10430126159889036,
          -0.15480689554828367,
          -0.09043322801589966
        ],
        [
          0.08434984881975881,
          0.04297687316883308,
          -0.1385793826887748,
          0.3027600788031097,
          -0.06382189237307995,
          -0.016399321604173973,
          -0.2203789733429872,
          0.16277997005642808,
          0.17317684654582546,
          -0.03253922290770273,
          -0.4746415626605533,
          -0.01966414143311786,
          0.15914311235023054,
          -0.13025052226922035,
          0.04049652791908716,
          0.10251123905181886,
          -0.408952632123769,
          0.1589412331581116,
          -0.3787396907806397,
          0.032480581977548516,
          0.12222631450659062,
          -0.02281651981701615,
          0.021456471021975516,
          0.08723629048435276,
          -0.10600504734691103,
          -0.09110395801665981,
          0.15721875880558436,
          0.06888711380587997,
          0.17525501734524793,
          0.1132394200825041,
          -0.15637177942106678,
          -0.28286060835000965,
          -0.2255528174280484,
          -0.26719002723693847,
          -0.5200009007510532,
          -0.11800490617752075,
          -0.1801628112792969,
          0.012866629660129547,
          -0.020061817420484872,
          0.021411031257918763,
          0.22516605854034424,
          -0.3330604532947418,
          -0.11443806798870805,
          -0.07614720463752747,
          -0.25170440172206743,
          -0.27598901012636484,
          0.018707973610955563,
          0.06144057051156277,
          -0.09346833334316389,
          0.11247130632400514
        ],
        [
          0.08564741136448628,
          0.25985615128499273,
          -0.020553640753821312,
          0.007065957298432254,
          0.27137870392034835,
          -0.07026009091792298,
          0.09391767542297287,
          0.2265888218346854,
          0.19994527901805725,
          0.2086471407347498,
          0.1380432800813069,
          0.03979923050920373,
          0.23289645542341555,
          -0.19953193804189454,
          -0.1589771854583169,
          -0.04246620535850525,
          0.18082903570146389,
          0.3219013690948487,
          0.26425743103027344,
          0.3093233190021169,
          0.04524341828856222,
          -0.034890584901350885,
