{"layers": [{"W": [[0.016925694420933723, -0.21987439692020416, 0.03941057249903679, 0.3650771975517273, -0.206323504447937, 0.04564482346177101, -0.21945501863956451, 0.13521622121334076, -0.2172694355249405, -0.10846274346113205, 0.12423519790172577, 0.21724069118499756, 0.5567566156387329], [0.11492636799812317, 0.029388269409537315, 0.02381257340312004, 0.06463107466697693, 0.3776801526546478, -0.2300306260585785, -0.3283884525299072, -0.28803399205207825, 0.21543407440185547, 0.19295300543308258, -0.19337812066078186, -0.04139348864555359, 0.3527188003063202], [0.019401583820581436, -0.020103879272937775, 0.1286350041627884, -0.24673214554786682, -0.6641885638237, 0.05767987295985222, -0.05971335619688034, 0.1519799381494522, 0.41270387172698975, -0.12423309683799744, -0.58744877576828, 0.18520382046699524, -0.5255987644195557], [0.03856781870126724, -0.04138079658150673, 0.13795089721679688, -0.10120687633752823, -0.21069304645061493, 0.03698441758751869, 0.16296161711215973, 0.26839470863342285, 0.4308045506477356, -0.2832925021648407, 0.14106537401676178, 0.2505585253238678, -0.6280094385147095], [0.15193584561347961, -0.3090355694293976, -0.06015092879533768, 0.07669335603713989, -0.1642056107521057, 0.21700170636177063, 0.05594141036272049, -0.19522349536418915, -0.26350080966949463, 0.22511905431747437, 0.079523466527462, -0.031854793429374695, 0.72360759973526], [-0.18466156721115112, -0.1825351119041443, -0.001936882734298706, 0.2747175991535187, -0.13757310807704926, -0.17860153317451477, -0.22994114458560944, 0.2214139997959137, 0.19405469298362732, -0.14478155970573425, -0.1848164051771164, -0.0914238691329956, -0.2065480351448059], [0.21284057199954987, -0.2357395440340042, -0.3341825604438782, 0.03747545927762985, 0.14397184550762177, 0.21064798533916473, -0.1022041067481041, 0.07945632934570312, 0.07294544577598572, 0.1414063423871994, 0.367497980594635, 0.1953449547290802, 0.878908634185791], [0.15300491452217102, -0.2424761801958084, 0.17548809945583344, 0.19768953323364258, -0.30347973108291626, 0.10232365131378174, 0.19909171760082245, 0.2501029968261719, 0.3805045485496521, -0.002473588567227125, 0.08485367894172668, -0.25250083208084106, -0.9221647381782532], [0.03725845739245415, 0.08070790767669678, 0.18850542604923248, 0.07348117977380753, 0.04768536239862442, 0.2286386489868164, -0.04348476231098175, -0.16151712834835052, -0.1942737102508545, -0.042485252022743225, 0.07585974037647247, 0.22230291366577148, 0.4343729615211487], [0.08017254620790482, 0.2997366189956665, -0.2528873085975647, 0.1044498160481453, 0.11188368499279022, 0.25222277641296387, 0.16981574892997742, 0.1727040559053421, -0.3906506299972534, 0.07043378800153732, 0.4318521022796631, -0.04867859184741974, 0.10338106006383896], [0.034349601715803146, -0.3075350522994995, -0.31191158294677734, 0.031198980286717415, 0.1252874732017517, -0.23121918737888336, 0.0766100138425827, -0.05759359151124954, 0.2773474156856537, -0.098756343126297, 0.08884560316801071, -0.14608906209468842, 0.033361781388521194], [-0.000952217960730195, 0.19848854839801788, -0.1630745232105255, 0.37051817774772644, -0.2924995720386505, -0.048476796597242355, 0.07101943343877792, -0.08661217242479324, -0.04980512708425522, -0.06510444730520248, 0.2110963612794876, -0.1402675211429596, 0.11894956231117249], [-0.005855250637978315, 0.31844258308410645, 0.15238827466964722, -0.05120152235031128, -0.20684756338596344, 0.09113547950983047, 0.14949354529380798, -0.20813418924808502, 0.09574075043201447, 0.18433482944965363, 0.1207556426525116, 0.26649191975593567, -0.8298172354698181], [-0.022247381508350372, 0.09152289479970932, 0.23916049301624298, -0.02152688428759575, -0.18224678933620453, -0.08474405854940414, 0.22444580495357513, 0.2221079170703888, 0.3877076208591461, 0.047294434159994125, -0.5499913692474365, 0.07300648093223572, -1.1000072956085205], [-0.06575635820627213, -0.009647165425121784, 0.3004404902458191, -0.5320242047309875, 0.021920083090662956, 0.11891042441129684, 0.2679564356803894, 0.05206421762704849, 0.26658254861831665, -0.08587279170751572, -0.4260236322879791, 0.1306215226650238, 0.6393349766731262], [0.05433019623160362, 0.2705244719982147, 0.25286415219306946, -0.11000960320234299, -0.13080739974975586, -0.10482878237962723, 0.25419309735298157, -0.05199074745178223, -0.05057721212506294, 0.1740088313817978, -0.21723124384880066, 0.10402393341064453, 0.16651134192943573], [0.14513950049877167, 0.18898659944534302, -0.13534966111183167, -0.45412227511405945, 0.014116373844444752, -0.4004589915275574, -0.12986360490322113, 0.22012263536453247, -0.24039453268051147, -0.05442039668560028, -0.28263527154922485, 0.1987290382385254, 1.25943124294281], [0.12790659070014954, -0.18368571996688843, 0.18886767327785492, -0.15758296847343445, -0.08269993215799332, -0.30933883786201477, 0.1735476404428482, -0.0014019791269674897, 0.040278755128383636, 0.01049928180873394, 0.18152166903018951, -0.031736135482788086, -0.19492441415786743], [-0.024247854948043823, 0.05733316391706467, -0.07384749501943588, 0.28755107522010803, -0.31312984228134155, -0.15974095463752747, 0.16734470427036285, -0.33986544609069824, 0.2935166656970978, -0.03942662477493286, -0.1667109578847885, 0.04209807515144348, 0.34590691328048706], [-0.10635106265544891, -0.07568080723285675, -0.1798015832901001, 0.01511731743812561, -0.19100160896778107, 0.04741731286048889, -0.24771206080913544, 0.015790939331054688, 0.0732668936252594, 0.2629040777683258, -0.17733630537986755, -0.23616787791252136, -0.16388212144374847], [0.007790716364979744, 0.1104937195777893, 0.31621336936950684, 0.13483625650405884, 0.08335646986961365, 0.031691811978816986, -0.034600019454956055, -0.11991274356842041, 0.35435622930526733, -0.049441512674093246, -0.3949752748012543, 0.1563510000705719, -0.46787428855895996], [0.0064530204981565475, -0.05738022178411484, 0.3730001747608185, -0.3099258244037628, -0.4744093418121338, -0.06629351526498795, 0.1808728277683258, 0.07139056921005249, 0.24427688121795654, -0.030714310705661774, -0.22569893300533295, -0.17057262361049652, 0.25478824973106384], [0.040868137031793594, 0.086194708943367, 0.22170157730579376, 0.4292559027671814, -0.037803765386343, -0.09165429323911667, 0.10598703473806381, 0.08571693301200867, 0.5307967662811279, 0.16425205767154694, 0.19761517643928528, 0.10346323251724243, -0.5873855948448181], [0.056671392172575, 0.16259250044822693, 0.14655597507953644, 0.07454318553209305, -0.6641112565994263, 0.09998900443315506, 0.0609935000538826, -0.02196001634001732, 0.013114101253449917, 0.45602452754974365, 0.05080564692616463, -0.21731573343276978, -1.0347989797592163], [-0.08317190408706665, 0.2963573634624481, 0.3847386837005615, -0.0060007753781974316, -0.011610862798988819, -0.2585364282131195, -0.08157508075237274, -0.21009661257266998, 0.2626340687274933, -0.01330698560923338, 0.19035235047340393, 0.1740170121192932, 0.46642208099365234], [-0.21602144837379456, -0.2078816443681717, -0.0772455632686615, -0.06894943118095398, 0.12340009212493896, -0.23843535780906677, -0.05848631262779236, -0.25623539090156555, -0.03295151889324188, -0.07233762741088867, 0.19143876433372498, -0.029662176966667175, 0.13898155093193054], [0.0039495378732681274, 0.08174557238817215, 0.40229156613349915, -0.06749604642391205, -0.43938490748405457, 0.0036061489954590797, 0.27485141158103943, -0.24203670024871826, 0.15947160124778748, 0.322502076625824, 0.04291634261608124, 0.14575082063674927, 0.129560187458992], [-0.15598100423812866, -0.03265838325023651, 0.08834007382392883, 0.14526507258415222, 0.26981619000434875, -0.06725172698497772, -0.10177101194858551, 0.07737332582473755, -0.15598654747009277, 0.031533777713775635, 0.23330405354499817, 0.21235820651054382, 0.21079358458518982], [-0.1339750587940216, -0.2590997815132141, 0.2394409477710724, 0.15064087510108948, 0.24685880541801453, 0.044168829917907715, -0.2516379654407501, 0.0015232264995574951, -0.12644290924072266, -0.20252753794193268, -0.05412270128726959, 0.2542608678340912, 0.26205548644065857], [0.051824651658535004, -0.28223907947540283, -0.5637364983558655, 0.27830544114112854, 0.1099996566772461, 0.08739142119884491, -0.25348153710365295, 0.2596394717693329, 0.04715796560049057, 0.15399213135242462, -0.38970106840133667, -0.2475404292345047, -0.05624942481517792], [0.1816294938325882, 0.21722036600112915, -0.041106291115283966, -0.1663362830877304, -0.2459912747144699, 0.2880699634552002, 0.1706792116165161, -0.1634415239095688, 0.2912914454936981, -0.27949827909469604, -0.00968659296631813, -0.1887315958738327, -0.3531460762023926], [0.08816374093294144, 0.30694133043289185, -0.14315827190876007, 0.5715060830116272, -0.38173046708106995, 0.31067290902137756, 0.1379423588514328, -0.031006477773189545, 0.4059225022792816, 0.24862796068191528, 0.34449273347854614, -0.11383408308029175, -1.028939127922058], [-7.088683923939243e-05, -0.10080297291278839, 0.050367798656225204, -0.14230653643608093, -0.7759425640106201, 0.3623269200325012, 0.28051137924194336, 0.091304250061512, 0.4469757676124573, 0.30534249544143677, -0.36830687522888184, 0.08080589771270752, -0.625201404094696], [0.07263121753931046, -0.24750648438930511, 0.09636233001947403, 0.20779328048229218, 0.0692058727145195, 0.23989085853099823, 0.01932315155863762, 0.05739031732082367, 0.4890534281730652, -0.010505830869078636, 0.19398324191570282, 0.1319003403186798, 0.2081013321876526], [-0.05240166559815407, 0.28515732288360596, -0.01762169413268566, 0.18900266289710999, -0.2952224612236023, 0.04696239158511162, 0.3024005591869354, -0.10125985741615295, -0.08776210248470306, 0.3570398986339569, -0.16166594624519348, 0.22949787974357605, 0.8336173295974731], [0.16525967419147491, -0.09055006504058838, 0.27181321382522583, 0.20012988150119781, -0.18690906465053558, 0.3081459105014801, 0.20605657994747162, -0.15171481668949127, 0.06992728263139725, -0.23725315928459167, -0.1136956736445427, -0.1689552366733551, -0.6914293766021729], [-0.11456829309463501, -0.08193624019622803, 0.1858137845993042, -0.23334084451198578, 0.08458089828491211, 0.06380905210971832, -0.191129669547081, 0.049933940172195435, 0.44284510612487793, -0.28161558508872986, -0.33774566650390625, -0.06888711452484131, -0.1135677918791771], [-0.00628602085635066, 0.3509543538093567, -0.19555264711380005, -0.02757452428340912, -0.17967142164707184, -0.2017846554517746, -0.0905977338552475, -0.04298732057213783, 0.3841036856174469, -0.16967637836933136, 0.11923252046108246, -0.21767571568489075, 0.12249290943145752], [0.1728258728981018, 0.009832343086600304, 0.20389509201049805, -0.3209112882614136, -0.3782729506492615, -0.15888239443302155, -0.07993262261152267, 0.06939131021499634, 0.2903687059879303, -0.19062767922878265, -0.2978097200393677, 0.03121843934059143, -0.49322396516799927], [-0.013669139705598354, -0.17696228623390198, 0.05649728327989578, 0.18723192811012268, 0.08420296758413315, -0.14901098608970642, 0.16632415354251862, -0.00047124677803367376, 0.4046439230442047, -0.017664628103375435, -0.3201756477355957, -0.1155531108379364, -0.04062030464410782], [-0.09618629515171051, -0.23673374950885773, -0.1754302680492401, -0.22788375616073608, -0.2674527168273926, -0.1789538860321045, -0.21888095140457153, -0.11912013590335846, -0.014325618743896484, -0.19540241360664368, 0.2653334438800812, -0.1947295367717743, 0.10464540123939514], [-0.20325130224227905, -0.24421937763690948, -0.06063181161880493, -0.2608094811439514, 0.2292751967906952, -0.030774608254432678, 0.14220872521400452, -0.2507164776325226, 0.21226099133491516, 0.18247345089912415, -0.04895767569541931, 0.27225378155708313, -0.21259146928787231], [-0.034946173429489136, 0.18582400679588318, 0.10516344010829926, 0.026756826788187027, -0.42059192061424255, 0.09251707047224045, -0.06719950586557388, -0.30288782715797424, 0.39271217584609985, -0.15056511759757996, -0.43217670917510986, 0.000922858715057373, -0.07137338072061539], [0.028471719473600388, 0.012966636568307877, 0.05767657607793808, 0.3859679400920868, -0.39765939116477966, 0.08343424648046494, 0.29989364743232727, -0.04333249479532242, 0.3596494793891907, 0.22588974237442017, 0.03284304216504097, -0.026802748441696167, -0.8300313353538513], [-0.11083684861660004, 0.32177573442459106, -0.12922276556491852, 0.19140522181987762, -0.07625837624073029, 0.2361852526664734, 0.12216552346944809, 0.19455747306346893, -0.40763938426971436, -0.025720344856381416, 0.2706359624862671, 0.077690988779068, 0.7051699757575989], [-0.026876000687479973, 0.1962747871875763, 0.002946016611531377, -0.024402525275945663, -0.5396175384521484, 0.38807588815689087, 0.21519692242145538, -0.20493148267269135, 0.5046896934509277, 0.0934760794043541, -0.0878802165389061, 0.08493545651435852, -0.23803488910198212], [0.10749424993991852, -0.10923819988965988, -0.11241703480482101, -0.055001214146614075, 0.4858822524547577, -0.04296841099858284, -0.09559731930494308, 0.0033366242423653603, -0.42844054102897644, 0.29467061161994934, -0.06816987693309784, -0.09816083312034607, 0.2178305685520172], [0.06947628408670425, -0.26468396186828613, 0.1406426876783371, -0.16664420068264008, -0.2940676212310791, 0.09619348496198654, -0.03398507460951805, -0.005685107782483101, 0.26004934310913086, -0.5045587420463562, -0.4446633756160736, -0.13724710047245026, -0.4669250547885895], [0.0006313830381259322, -0.07125276327133179, 0.09323012083768845, -0.31921815872192383, -0.4113306999206543, -0.23414281010627747, -0.17794722318649292, 0.35320141911506653, 0.16571703553199768, -0.0949525460600853, -0.46744024753570557, -0.21196573972702026, -0.397408664226532], [-0.08074650168418884, -0.02917570061981678, -0.02606859803199768, 0.3046579360961914, -0.21564477682113647, -0.29505234956741333, 0.29565519094467163, 0.14974823594093323, 0.23509705066680908, 0.23785783350467682, 0.07816779613494873, 0.20452934503555298, -0.24600663781166077], [0.07990170270204544, 0.03148360922932625, -0.4373956620693207, 0.06945794075727463, 0.006254864856600761, -0.2956600487232208, -0.23751142621040344, 0.05251765623688698, -0.003992475103586912, -0.0657658502459526, 0.09834927320480347, 0.12215408682823181, 0.32829684019088745], [-0.018343303352594376, -0.03518202155828476, -0.008733663707971573, 0.164624884724617, -1.082184910774231, 0.09623555839061737, 0.24886329472064972, 0.10453781485557556, 0.05959199741482735, -0.024094166234135628, 0.15560758113861084, 0.0979299247264862, 1.5932241678237915], [-0.07986964285373688, -0.16417284309864044, -0.10462641716003418, 0.15665540099143982, 0.08109492063522339, -0.22428207099437714, -0.2024853527545929, -0.05704227089881897, 0.05881217122077942, 0.2580302059650421, -0.1112690418958664, 0.2695833146572113, 0.12320926785469055], [-0.009900146164000034, 0.05707619711756706, 0.37548354268074036, -0.27475351095199585, 0.08071356266736984, -0.02121785655617714, 0.09408889710903168, 0.023225320503115654, -0.4734627604484558, 0.09790493547916412, -0.11266262084245682, -0.25986066460609436, 0.21477727591991425], [-0.021989384666085243, 0.021807735785841942, 0.28147920966148376, -0.12147676199674606, -0.23653335869312286, -0.0003316118090879172, -0.03832279518246651, -0.019722994416952133, 0.49555569887161255, -0.05445414409041405, -0.1788729578256607, -0.022816181182861328, -0.7794703245162964], [-0.006709651090204716, 0.3024256229400635, -0.0013099596835672855, 0.33654481172561646, -0.4732126295566559, 0.003470367519184947, 0.3322652578353882, 0.20480412244796753, 0.03440644219517708, 0.19831623136997223, 0.22555877268314362, -0.14792123436927795, -0.5180378556251526], [0.06164748594164848, -0.10189783573150635, -0.4253263473510742, 0.13906219601631165, -0.0583462193608284, 0.030940907076001167, -0.17716650664806366, -0.09920211136341095, 0.1015603169798851, 0.12170231342315674, -0.1515405774116516, -0.2488451451063156, 0.3865620791912079], [0.1219901368021965, -0.019886158406734467, -0.2908400893211365, 0.3341657519340515, -0.18715670704841614, 0.17935214936733246, -0.03558294475078583, -0.13913673162460327, -0.2523387372493744, -0.13138222694396973, -0.11628840863704681, 0.024013280868530273, -0.13886885344982147], [0.07636488229036331, -0.20210188627243042, 0.08980430662631989, 0.23436474800109863, -0.5447304844856262, 0.3117954134941101, -0.06651843339204788, 0.4207901656627655, 0.6536502838134766, 0.2062351405620575, 0.06453418731689453, 0.19866475462913513, -0.5149528980255127], [-0.014019627124071121, 0.022899383679032326, 0.12459329515695572, -0.3834175765514374, -0.6168345212936401, -0.009511579759418964, -0.0004595320497173816, 0.004518131725490093, 0.3194192945957184, -0.21726910769939423, -0.2174447625875473, 0.16520905494689941, 0.6612550020217896], [-0.010573647916316986, -0.18225248157978058, 0.20898796617984772, -0.5143232345581055, 0.09800587594509125, 0.003597807604819536, 0.11361853778362274, -0.1653130203485489, 0.27008795738220215, -0.40511012077331543, -0.1585056036710739, 0.052787333726882935, -0.36825287342071533], [-0.015200406312942505, 0.20038250088691711, 0.008973173797130585, -0.3119519352912903, -0.6120743751525879, 0.2605675756931305, -0.03291807323694229, 0.13013692200183868, 0.43706658482551575, 0.09437330067157745, 0.06166522949934006, 0.059918493032455444, -0.6076881289482117], [0.132690891623497, 0.25751590728759766, 0.15400873124599457, -0.12277244031429291, -0.38086673617362976, -0.01651977375149727, 0.020835615694522858, 0.2702573239803314, 0.20790879428386688, -0.009769913740456104, -0.27378004789352417, 0.1891193985939026, -0.11776206642389297], [-0.03867112100124359, -0.0642344281077385, 0.2175901234149933, 0.24634140729904175, -0.37694260478019714, 0.1287192404270172, 0.1956785023212433, -0.30084237456321716, 0.541948676109314, -0.03153866156935692, -0.08234567940235138, 0.1604977250099182, -0.865018904209137], [0.10757465660572052, 0.27103355526924133, 0.11567771434783936, 0.1210927665233612, -0.5059350728988647, 0.0512835867702961, 0.015602742321789265, -0.14596085250377655, 0.0038338073063641787, -0.1638529747724533, -0.057690806686878204, -0.06543225049972534, -0.5621691942214966], [0.1321590691804886, 0.24905090034008026, -0.15198421478271484, 0.08196505159139633, -0.15305016934871674, -0.22243602573871613, -0.10600753128528595, 0.24046064913272858, 0.5074694156646729, 0.1372971534729004, -0.03407885879278183, -0.15132960677146912, -0.6417123079299927], [0.07930168509483337, 0.2670835852622986, 0.030310645699501038, 0.24210752546787262, 0.16037996113300323, -0.15646441280841827, -0.051820188760757446, -0.0743178129196167, -0.43325814604759216, -0.010044948197901249, -0.19212904572486877, 0.08085566759109497, 0.5656885504722595], [-0.003633585525676608, 0.0866256058216095, 0.14748699963092804, 0.33933910727500916, 0.6740971207618713, 0.04161200299859047, -0.04856691509485245, 0.07415369898080826, 0.015262936241924763, -0.3207968771457672, 0.430307537317276, -0.10250335931777954, -0.5568849444389343], [0.04155924171209335, 0.05404229089617729, -0.5955203771591187, 0.2523897588253021, 0.18042004108428955, -0.17999853193759918, -0.3067457675933838, 0.329969584941864, -0.19596055150032043, 0.1356726735830307, -0.6656336188316345, 0.16633206605911255, -0.33027392625808716], [-0.1465674340724945, 0.183354914188385, -0.0905226394534111, -0.08343351632356644, -0.12546269595623016, -0.04606977850198746, 0.20261485874652863, -0.01640304923057556, 0.1369345635175705, 0.23822088539600372, -0.21657195687294006, -0.09463019669055939, -0.46864965558052063], [-0.04326169192790985, -0.252207487821579, -0.051871687173843384, -0.18386632204055786, 0.15891116857528687, -0.05302716791629791, -0.0973949283361435, 0.08792144060134888, -0.07900208234786987, -0.018389761447906494, 0.12617197632789612, 0.10807517170906067, -0.021801650524139404], [0.008434595540165901, 0.31637758016586304, -0.10027264058589935, 0.22693634033203125, -0.1411130726337433, 0.2691376805305481, -0.11971183121204376, 0.09726810455322266, 0.11558594554662704, 0.0990028902888298, 0.3738480508327484, 0.22645387053489685, -0.5723406076431274], [0.21697983145713806, 0.0038981628604233265, -0.15570174157619476, -0.1925148218870163, 0.4645387530326843, 0.18508505821228027, 0.04204212501645088, 0.10196689516305923, -0.3609045743942261, 0.015224339440464973, -0.08043626695871353, -0.13689541816711426, 1.3375849723815918], [-0.1352374255657196, -0.15285515785217285, -0.21325424313545227, 0.02795356512069702, 0.16268190741539001, -0.2335222363471985, -0.14340248703956604, 0.0535719096660614, 0.047286272048950195, -0.09204995632171631, -0.013538837432861328, -0.20778322219848633, 0.12822911143302917], [-0.19138643145561218, -0.23394514620304108, 0.18439120054244995, -0.10500934720039368, -0.09009972214698792, 0.24272963404655457, -0.24655476212501526, -0.0669562816619873, -0.18972042202949524, -0.14726212620735168, 0.033297955989837646, -0.08889731764793396, 0.07553136348724365], [0.08647198975086212, -0.2586934566497803, -0.18392226099967957, -0.1483551561832428, 0.4487113058567047, 0.12404513359069824, -0.32237812876701355, 0.21445244550704956, -0.11198239028453827, 0.0036037222016602755, -0.14025293290615082, 0.018803447484970093, 0.7545596957206726], [-0.0012925153132528067, 0.1798703819513321, 0.02544260397553444, -0.06758631020784378, -0.5322799682617188, 0.004462667740881443, 0.03258304297924042, -0.07730229943990707, 0.1975616216659546, -0.06720929592847824, -0.26034748554229736, 0.2586459815502167, -1.0714313983917236], [-0.03766236454248428, 0.14881016314029694, 0.2834879755973816, 0.0032356507144868374, -0.6724824905395508, 0.263543963432312, -0.24808800220489502, -0.14140810072422028, -0.03192334249615669, 0.35547614097595215, -0.028881462290883064, 0.0010930895805358887, 0.34398016333580017], [0.24417251348495483, -0.21843869984149933, -0.08511584997177124, -0.38115695118904114, 0.4678760766983032, -0.07138426601886749, 0.18095438182353973, -0.06301835924386978, -0.037815432995557785, 0.3266538381576538, 0.05031202360987663, 0.13119331002235413, 0.8449662923812866], [-0.05079502984881401, 0.24319975078105927, 0.42427849769592285, 0.02937929891049862, 0.5354010462760925, 0.07814475148916245, 0.01555436011403799, 0.1321752667427063, -0.251384973526001, -0.03994624689221382, -0.018616722896695137, 0.028697460889816284, -0.044809091836214066], [-0.033475205302238464, 0.21788787841796875, -0.15677522122859955, -0.0023733898997306824, -0.3746836185455322, 0.18431079387664795, -0.0501595102250576, -0.15127229690551758, 0.23777587711811066, 0.25903117656707764, 0.3062523305416107, 0.10445663332939148, -0.33704301714897156], [1.0452356946188956e-05, 0.18954041600227356, 0.30790063738822937, 0.29365652799606323, -0.22571858763694763, -0.023754185065627098, 0.045493099838495255, -0.2495739758014679, 0.14824293553829193, -0.09769115597009659, 0.3025047481060028, 0.047061532735824585, 0.2579196095466614], [0.0555277019739151, -0.10168854892253876, 0.09824772924184799, 0.13727359473705292, 0.018948901444673538, -0.15214498341083527, 0.06587817519903183, 0.07538816332817078, -0.26858946681022644, -0.20974615216255188, -0.013751664198935032, -0.17488902807235718, 1.0131170749664307], [0.1535285860300064, -0.08871737867593765, -0.7704414129257202, -0.40354758501052856, 0.17219537496566772, -0.020889950916171074, -0.24825388193130493, 0.21990174055099487, 0.12223809212446213, -0.3071908950805664, -0.2104424685239792, -0.19725680351257324, -0.10101938992738724], [0.19911208748817444, 0.044303763657808304, -0.11253691464662552, -0.6353291869163513, 0.3866086006164551, -0.17435254156589508, 0.0644335001707077, 0.03197716921567917, -0.22025559842586517, 0.2916093170642853, -0.20982331037521362, -0.20744287967681885, 0.6859759092330933], [0.08875533938407898, -0.04187934473156929, -0.20640206336975098, -0.3008904457092285, 0.2702479064464569, 0.17411750555038452, -0.057221919298172, -0.14529144763946533, -0.272016316652298, 0.1567888855934143, 0.04322845861315727, -0.07695186138153076, 0.2576950192451477], [0.14175136387348175, 0.14905215799808502, 0.2856290340423584, -0.24949891865253448, -0.07319650799036026, 0.11818081140518188, 0.17550797760486603, -0.15480542182922363, 0.18036484718322754, -0.23837222158908844, -0.4066874086856842, 0.019698739051818848, 0.006937459111213684], [0.20280025899410248, 0.00014070101315155625, -0.038100503385066986, 0.5056725740432739, 0.05196442827582359, 0.1892911046743393, 0.0697028711438179, 0.1187061294913292, -0.21459317207336426, -0.4020347595214844, 0.1827652007341385, -0.0595225989818573, 0.8655736446380615], [-0.0084351422265172, 0.024174075573682785, 0.3804420232772827, -0.16730891168117523, -0.4166484475135803, -0.2769924998283386, 0.24084801971912384, 0.11926200240850449, -0.12426286190748215, 0.17104804515838623, 0.0519726425409317, 0.15906068682670593, 0.7008134126663208], [-0.27134713530540466, -0.08469849824905396, 0.028321683406829834, -0.24367061257362366, 0.20762452483177185, -0.09483392536640167, -0.15309858322143555, -0.24645739793777466, -0.2325560450553894, 0.1304890513420105, -0.19245412945747375, 0.08548042178153992, -0.11290793120861053], [-0.049601733684539795, -0.27603909373283386, -0.20073407888412476, -0.20919810235500336, -0.2756374478340149, -0.11702221632003784, -0.12055996060371399, 0.05146998167037964, -0.17839619517326355, -0.20346049964427948, -0.16264131665229797, -0.028825417160987854, 0.1265815794467926], [-0.03286117687821388, 0.2730754315853119, 0.15068605542182922, -0.3916592001914978, -0.4187433123588562, 0.12901735305786133, -0.09518174827098846, -0.23102709650993347, 0.33710232377052307, 0.3697983920574188, -0.12540411949157715, -0.25956064462661743, 0.27052780985832214], [0.22716504335403442, -0.22757655382156372, 0.16619351506233215, -0.0017881535459309816, -0.24398952722549438, -0.14172902703285217, 0.1315346509218216, -0.019812725484371185, 0.5040432214736938, 0.19438502192497253, -0.3292503356933594, 0.21476906538009644, -0.6208158135414124], [0.06236354261636734, -0.002552984282374382, 0.010555170476436615, -0.2994236946105957, -0.24218149483203888, 0.022691991180181503, 0.10278739780187607, 0.15823327004909515, 0.17824220657348633, -0.2484603226184845, 0.030038809403777122, -0.2696194350719452, -0.4016655683517456], [-0.0027457987889647484, 0.14122040569782257, 0.006657646968960762, 0.04733551666140556, 0.49879083037376404, 0.020640604197978973, 0.23476502299308777, -0.4191877245903015, -0.2806742489337921, -0.16611701250076294, -0.028740260750055313, 0.21280759572982788, -0.37116482853889465], [0.0009788678726181388, 0.025324853137135506, 0.06428945809602737, -0.4810721278190613, -0.34358343482017517, 0.03276597335934639, -0.0251308586448431, 0.01599159464240074, 0.09661320596933365, 0.1364292949438095, -0.1703086942434311, 0.005653649568557739, -1.0082130432128906], [-0.18372377753257751, -0.19475756585597992, 0.24785402417182922, 0.039984822273254395, 0.26509925723075867, -0.1302187293767929, -0.18083569407463074, 0.08827129006385803, -0.09670822322368622, 0.23961326479911804, -0.1489139348268509, -0.17604996263980865, 0.08913424611091614], [-0.006167562212795019, 0.1600954532623291, -0.0107835428789258, -0.24820958077907562, -0.4936664402484894, -0.10510660707950592, 0.14274361729621887, 0.26998811960220337, 0.30665475130081177, -0.3017088770866394, -0.0924764946103096, 0.06196659803390503, -0.3926791548728943], [0.06622225046157837, -0.24983100593090057, -0.4646877944469452, 0.3030391037464142, 0.6474388837814331, -0.29782283306121826, -0.1594313085079193, -0.022546563297510147, 0.039928656071424484, 0.2709600329399109, -0.4474249482154846, -0.2491588145494461, -0.16272950172424316], [0.10782860964536667, 0.1584700644016266, -0.1800227165222168, -0.055108875036239624, -0.5477422475814819, -0.27446356415748596, -0.06720438599586487, 0.26030105352401733, 0.33872658014297485, -0.3602514863014221, -0.12372857332229614, 0.1863400638103485, -0.06954549252986908], [-0.04217422008514404, -0.10279370099306107, 0.1465926170349121, -0.3537789583206177, -0.11197297275066376, -0.16583390533924103, -0.004021778702735901, 0.21469330787658691, 0.07736510783433914, 0.34478551149368286, -0.20911170542240143, -0.14477737247943878, 0.6496891379356384], [-0.03380037471652031, 0.19589193165302277, 0.18993976712226868, -0.06648265570402145, -0.4934648275375366, 0.16719746589660645, -0.05022629350423813, -0.2353963404893875, 0.28666019439697266, -0.03528185561299324, 0.05181993916630745, -0.1730557382106781, -0.7139308452606201], [-0.04851777106523514, -0.2307310253381729, 0.10165415704250336, -0.40022385120391846, -0.2655922472476959, -0.12306734919548035, -0.09860455989837646, 0.0392330065369606, 0.30985572934150696, -0.17535771429538727, -0.039213526993989944, -0.17734402418136597, -0.4606344401836395], [-0.20958861708641052, -0.155885711312294, -0.04856102168560028, -0.19324028491973877, -0.03891018033027649, 0.058562785387039185, -0.27108362317085266, 0.0461367666721344, -0.18732725083827972, -0.02539384365081787, -0.22199614346027374, -0.09020161628723145, 0.16919666528701782], [-0.05855811759829521, 0.35745397210121155, 0.15948545932769775, -0.05361645296216011, -0.11686630547046661, -0.1519109606742859, 0.34101930260658264, -0.07969734072685242, -0.3523334264755249, 0.08212476968765259, 0.048005733639001846, 0.19288599491119385, 0.5278304815292358], [0.0787878930568695, 0.09878814220428467, 0.323047012090683, -0.22855867445468903, -0.2557995915412903, -0.06661905348300934, -0.18925464153289795, 0.15386371314525604, -0.14367149770259857, 0.11109600961208344, -0.1919187307357788, -0.13695959746837616, 0.7681170105934143], [-0.08750145137310028, -0.08869345486164093, 0.17110556364059448, -0.08572998642921448, 0.15885072946548462, 0.096844881772995, -0.2594190537929535, -0.21942314505577087, 0.20615243911743164, 0.13262325525283813, 0.13846680521965027, -0.06504429876804352, -0.16774362325668335], [0.07685408741235733, 0.22893014550209045, -0.08934760838747025, 0.012402212247252464, -0.18637853860855103, 0.17087975144386292, 0.17575128376483917, 0.22211691737174988, 0.2071545273065567, 0.2660902142524719, 0.006066377740353346, 0.2282901108264923, -0.4260745346546173], [0.13955269753932953, -0.22150518000125885, 0.1583457887172699, -0.038156941533088684, 0.14073757827281952, 0.18322625756263733, 0.3204878866672516, 0.1118670254945755, 0.09395761787891388, -0.3661171793937683, 0.27531930804252625, -0.27385765314102173, -0.71584153175354], [-0.019612934440374374, 0.09127318114042282, 0.24898718297481537, -0.13070674240589142, -0.2138713002204895, -0.09009760618209839, 0.07540365308523178, -0.10442018508911133, 0.3214852511882782, 0.21467050909996033, -0.21861474215984344, -0.1643277108669281, -0.9448248147964478], [0.013340196572244167, -0.13770604133605957, -0.3930146098136902, 0.18169568479061127, 0.053427450358867645, -0.15743932127952576, -0.20126491785049438, 0.2457062005996704, 0.3482949137687683, 0.048064544796943665, -0.6024114489555359, -0.05204486846923828, 0.605028510093689], [0.11426831036806107, 0.21525616943836212, 0.2991374135017395, 0.3969329595565796, -0.4949539601802826, 0.3633562922477722, 0.08663574606180191, -0.03335914388298988, 0.12991835176944733, -0.2655061185359955, -0.1143946647644043, -0.25557273626327515, -0.8071287274360657], [0.12376295775175095, -0.14508391916751862, 0.41361355781555176, 0.19065247476100922, -0.08898769319057465, 0.30708906054496765, 0.08665573596954346, 0.0035166162997484207, 0.09300557523965836, 0.013225458562374115, -0.25860244035720825, 0.042333632707595825, 0.91836017370224], [0.15972808003425598, -0.04083522409200668, -0.09847670048475266, -0.3997105360031128, -0.03694087266921997, 0.18246112763881683, -0.09916162490844727, 0.18171963095664978, -0.3386721611022949, -0.00046333414502441883, -0.3551604747772217, 0.07785964012145996, 0.6585046052932739], [0.11040600389242172, 0.1277162730693817, -0.06535062938928604, -0.07807666808366776, -0.1239774078130722, -0.023466402664780617, 0.06966951489448547, 0.08649235218763351, 0.2345237135887146, 0.0969642847776413, -0.3344518542289734, 0.0068759918212890625, -0.9481340646743774], [0.11132770031690598, -0.27041226625442505, -0.28101646900177, -0.23772740364074707, 0.20583100616931915, -0.09663602709770203, -0.06159951165318489, -0.11005590856075287, 0.241199791431427, 0.27062156796455383, -0.3233305513858795, -0.05006137490272522, 0.544548511505127], [0.01613975688815117, -0.024643024429678917, -0.49579480290412903, -0.23293185234069824, -0.13455843925476074, 0.02623804286122322, -0.04935290664434433, 0.09693237394094467, 0.1356225460767746, -0.04996678978204727, 0.04087313264608383, -0.0503033846616745, 0.9455538392066956], [-0.0020379803609102964, 0.2312750369310379, -0.06634089350700378, 0.3448333144187927, -0.3953394293785095, 0.11428588628768921, -0.08390863984823227, -0.21788106858730316, 0.4889269471168518, 0.32794085144996643, 0.2073000967502594, 0.12047424912452698, -0.7536213994026184], [-0.0617537684738636, -0.19424834847450256, -0.22697994112968445, -0.19087277352809906, -0.056389857083559036, 0.2538064122200012, 0.22030025720596313, 0.32266709208488464, 0.4131855070590973, -0.1535315364599228, 0.12299412488937378, -0.041757434606552124, -0.3016957938671112], [-0.250952810049057, -0.2394586205482483, 0.03468093276023865, 0.24009904265403748, 0.07972106337547302, -0.08829213678836823, -0.20822399854660034, 0.09521913528442383, 0.146201491355896, 0.18750005960464478, 0.19473165273666382, -0.10226821899414062, 0.10572528839111328], [0.1347471922636032, -0.11968031525611877, 0.07938418537378311, 0.07348626106977463, -0.3163992166519165, -0.2791401743888855, 0.021201035007834435, -0.0554310567677021, 0.5552107691764832, -0.03996313735842705, 0.24055269360542297, 0.16177305579185486, -0.4939202666282654], [-0.17196036875247955, -0.1803005039691925, 0.016162604093551636, 0.05052995681762695, 0.005073219537734985, -0.2476186603307724, 0.06897562742233276, -0.2727128565311432, -0.22081848978996277, 0.21686282753944397, -0.23215854167938232, -0.15893584489822388, 0.08574914932250977], [0.17037305235862732, -0.2845766246318817, 0.28001198172569275, 0.15700224041938782, -0.36721092462539673, -0.21624746918678284, 0.24694932997226715, 0.19620054960250854, 0.09086014330387115, 0.2182503491640091, -0.08684482425451279, -0.17448179423809052, -0.3121951222419739], [0.013345401734113693, 0.17774207890033722, 0.15224845707416534, -0.22709056735038757, -0.4040147066116333, -0.10507151484489441, -0.13688965141773224, -0.019277561455965042, 0.3725202977657318, -0.11770042777061462, -0.010269722901284695, 0.025356918573379517, -0.3339262008666992], [0.11783058196306229, -0.1922793835401535, -0.6210811734199524, 0.0017112880013883114, 0.5546960830688477, -0.33246609568595886, -0.21051949262619019, 0.028364848345518112, 0.33636316657066345, -0.9831686019897461, -0.38330474495887756, 0.25178930163383484, -0.10132631659507751], [0.2300655096769333, -0.09479598701000214, -0.10856500267982483, -0.1904095709323883, 0.002206063363701105, -0.01976102963089943, 0.10497228056192398, -0.09516897052526474, -0.4954669177532196, -0.08627478033304214, 0.06917134672403336, -0.07878690958023071, 1.5393601655960083], [0.010292178951203823, -0.05118681117892265, -0.07837797701358795, 0.16950729489326477, -0.9501175284385681, -0.017446979880332947, 0.3435576260089874, 0.2548091411590576, -0.03261798247694969, 0.04986025020480156, -0.09073538333177567, -0.214415043592453, 0.6104981303215027], [-0.0835646390914917, -0.048824865370988846, -0.13425250351428986, 0.018963294103741646, -0.18017710745334625, 0.27092722058296204, 0.06384458392858505, -0.40217453241348267, -0.5276603698730469, -0.057353515177965164, 0.08966591954231262, 0.26776787638664246, -0.3259637951850891], [-0.17147381603717804, -0.09123508632183075, 0.04126983880996704, -0.2668834328651428, -0.07222588360309601, -0.09029743075370789, -0.2288966327905655, -0.15189526975154877, 0.08861300349235535, 0.07271936535835266, 0.24724683165550232, -0.03797909617424011, 0.18317270278930664], [-0.0009294949704781175, -0.02416757494211197, -0.0849447250366211, -0.41594892740249634, -0.12862329185009003, 0.2539704144001007, 0.21896158158779144, -0.1988193243741989, -0.2849956750869751, 0.04556639492511749, 0.04108308628201485, 0.13727867603302002, 0.6862515807151794], [-0.1322547197341919, 0.25214800238609314, -0.02877914160490036, -0.14525941014289856, 0.1646755486726761, 0.07800474017858505, 0.22786691784858704, 0.10177125036716461, -0.031023267656564713, 0.211316779255867, -0.16160020232200623, 0.09923070669174194, -0.5708633065223694], [0.06662622839212418, 0.20170781016349792, -0.12963655591011047, 0.1867217868566513, -0.32975903153419495, 0.005287746898829937, 0.1790345162153244, 0.05049165338277817, 0.05972591042518616, -0.17638179659843445, -0.31878525018692017, 0.009595692157745361, -0.7401047945022583], [0.002026399364694953, 0.07428085803985596, 0.22622886300086975, 0.2776361107826233, -0.8205408453941345, -0.08434665203094482, 0.316820353269577, -0.2243461012840271, 0.47955194115638733, 0.03077346831560135, -0.28631705045700073, -0.09869664907455444, -0.49852344393730164], [0.0048106578178703785, 0.31878089904785156, -0.05580131709575653, -0.001975477673113346, -0.18203623592853546, 0.03088720515370369, 0.3299458920955658, -0.3386681079864502, -0.1857924610376358, -0.24277392029762268, 0.030975745990872383, 0.2538650333881378, -0.4667557179927826], [-0.12313514947891235, -0.20757845044136047, -0.008122026920318604, -0.076011523604393, 0.21535810828208923, 0.1464042067527771, -0.2565370202064514, -0.16966691613197327, 0.20704463124275208, -0.21851970255374908, 0.20771461725234985, -0.24414780735969543, 0.07774928212165833], [-0.1375691294670105, -0.216435968875885, -0.03785276412963867, -0.20333462953567505, 0.20527294278144836, -0.06117619574069977, -0.04182353615760803, -0.003917664289474487, 0.08001038432121277, -0.24534662067890167, -0.013875037431716919, -0.010506600141525269, -0.05391955375671387], [-0.009044735692441463, -0.14473484456539154, 0.173480823636055, -0.48336413502693176, -0.4555545449256897, 0.0968124121427536, -0.0023570505436509848, 0.007109586615115404, 0.45914188027381897, -0.10909726470708847, -0.2899937331676483, -0.0945122241973877, -0.4367973804473877], [0.04328365623950958, -0.09820686280727386, 0.3050033450126648, 0.08636292070150375, -0.1767643243074417, 0.23835664987564087, 0.2811409831047058, 0.07337886095046997, 0.49525636434555054, -0.011998015455901623, -0.2646943926811218, -0.07163263857364655, -0.14646577835083008], [0.043681059032678604, 0.09351157397031784, 0.1897294670343399, 0.20168952643871307, 0.1521991491317749, -0.024872630834579468, -0.1461821049451828, 0.28049954771995544, -0.32560908794403076, 0.2570897340774536, 0.1011781245470047, 0.16831886768341064, 0.45434504747390747], [0.046734631061553955, -0.3291029930114746, -0.23984546959400177, -0.3509480953216553, 0.3785437345504761, 0.05241306126117706, 0.10178215801715851, 0.424380362033844, -0.4656190872192383, -0.3353716731071472, -0.27655184268951416, 0.1387454867362976, 0.19024869799613953], [-0.005219068378210068, 0.12019143253564835, 0.254725843667984, 0.317976176738739, -0.21113643050193787, 0.13276806473731995, 0.12870804965496063, -0.1303360015153885, 0.03159097209572792, 0.12344232201576233, -0.017733857035636902, -0.1786842942237854, -0.8254202604293823], [0.013941694051027298, -0.04734455421566963, -0.2331216186285019, -0.02064713090658188, 0.2280488908290863, 0.049603044986724854, -0.07905079424381256, -0.03947880491614342, -0.1617848426103592, -0.1727692186832428, -0.13907599449157715, -0.01083838939666748, 0.06390926241874695], [0.09647542983293533, 0.13963370025157928, -0.10203856229782104, -0.07902725785970688, -0.23730343580245972, 0.06934121251106262, 0.07954216003417969, -0.2066892832517624, 0.013039379380643368, 0.26592716574668884, -0.26576533913612366, 0.1525138020515442, -0.8347693085670471], [0.1844349503517151, 0.23807519674301147, 0.020988404750823975, -0.29105570912361145, -0.09578648209571838, -0.0699891597032547, 0.1662220060825348, 0.17552189528942108, 0.1285250037908554, 0.22100608050823212, 0.0892256498336792, 0.19550204277038574, -0.07215667515993118], [0.23255766928195953, -0.03728907182812691, 0.13570261001586914, -0.1880996972322464, -0.07107284665107727, -0.006972210947424173, -0.08063105493783951, 0.2991037666797638, 0.0256196241825819, -0.05092516914010048, 0.06127583980560303, 0.0721387267112732, -0.02040962316095829], [0.13811875879764557, -0.11709480732679367, 0.021663282066583633, -0.0721755102276802, 0.5734650492668152, -0.11941832304000854, 0.08276985585689545, 0.0754300057888031, -0.4166627824306488, -0.3083520531654358, 0.12354820221662521, -0.21374617516994476, 1.5688725709915161], [-0.03780723363161087, 0.1923372894525528, 0.20154842734336853, -0.26717686653137207, 0.05387146770954132, 0.12017491459846497, -0.027412230148911476, -0.05212690681219101, 0.5064813494682312, -0.06629648804664612, -0.2722741365432739, -0.07106168568134308, 0.41129302978515625], [-0.07447877526283264, -0.16131800413131714, -0.2538484036922455, -0.17700408399105072, -0.27407971024513245, -0.10988791286945343, -0.019924908876419067, -0.046322569251060486, -0.22790776193141937, 0.07782453298568726, -0.0661759078502655, -0.21571436524391174, 0.13274356722831726], [-0.14471827447414398, 0.09464763849973679, 0.04931756854057312, -0.1948024183511734, 0.2689717710018158, 0.014865817502140999, 0.21644149720668793, -0.06360984593629837, 0.5082302093505859, 0.20957565307617188, -0.509755551815033, 0.07898855209350586, 0.055751193314790726], [-0.03808220475912094, 0.26442453265190125, 0.11295490711927414, -0.31670594215393066, -0.6851694583892822, 0.2351282835006714, -0.08897899836301804, 0.12507936358451843, 0.2451600879430771, 0.13427339494228363, -0.3817695379257202, -0.0053640007972717285, -0.6666156053543091], [0.18492957949638367, -0.3247010409832001, -0.29936179518699646, -0.11994723230600357, -0.1826886683702469, 0.00575571833178401, 0.05966561660170555, 0.4382373094558716, 0.027955131605267525, -0.35083770751953125, 0.06693419814109802, -0.25164830684661865, -0.5687460899353027], [0.0694098100066185, -0.18812689185142517, -0.07046002894639969, -0.34401950240135193, 0.1565478891134262, -0.20942039787769318, 0.01702832244336605, -0.1440734714269638, 0.3961435854434967, -0.4960380494594574, -0.3838995099067688, -0.2213159203529358, -0.3548772931098938], [0.012762694619596004, -0.038469865918159485, -0.42106932401657104, 0.18645301461219788, 0.23108141124248505, -0.17907306551933289, -0.3137551248073578, 0.21245543658733368, 0.16292628645896912, -0.06021251529455185, -0.30698537826538086, -0.06898263096809387, 0.5338997840881348], [-0.020727423951029778, -0.09043128043413162, -0.6320659518241882, 0.024672646075487137, -0.23834724724292755, 0.22485856711864471, 0.12252145260572433, 0.005196256097406149, -0.13840332627296448, 0.0814761072397232, -0.3768094778060913, -0.25757238268852234, 0.03483235090970993], [0.0019495747983455658, 0.2187243103981018, 0.18744446337223053, -0.08922821283340454, -0.4658399224281311, 0.01898324117064476, 0.23954451084136963, 0.07565727829933167, 0.45595550537109375, 0.21034027636051178, 0.2310865819454193, 0.21701866388320923, -0.4456668496131897], [0.07901442795991898, -0.01583598181605339, -0.28891700506210327, 0.023135574534535408, 0.2546585500240326, -0.06013086810708046, -0.25712311267852783, 0.057829201221466064, -0.020346540957689285, -0.2963523864746094, -0.4099491834640503, 0.19159525632858276, 0.3718715012073517], [-0.01819341443479061, -0.02285982295870781, 0.25292178988456726, 0.0790260061621666, -0.06453508883714676, -0.0757753998041153, 0.08814537525177002, -0.2744201719760895, 0.30943959951400757, -0.1791725903749466, -0.3972182869911194, -0.11890067160129547, -0.17925529181957245], [0.14962457120418549, -0.21159999072551727, -0.3624083399772644, -0.28236624598503113, 0.49028563499450684, 0.159044548869133, 0.16446524858474731, 0.3534395694732666, -0.05435294285416603, -0.17509903013706207, 0.26331084966659546, 0.032177090644836426, -0.1373908519744873], [0.06407581269741058, 0.10176233947277069, 0.268913209438324, -0.02524409256875515, -0.7528595924377441, 0.0856422409415245, -0.0014319405891001225, 0.27493950724601746, 0.2600729167461395, 0.27690038084983826, -0.45138904452323914, -0.13975197076797485, -0.27770498394966125], [-0.009693188592791557, 0.03886187821626663, 0.17468273639678955, 0.19352862238883972, -0.22368790209293365, 0.0013419404858723283, -0.12385374307632446, 0.012021973729133606, 0.36644288897514343, 0.13115371763706207, -0.2580372095108032, 0.16550126671791077, -0.6520556807518005], [0.08069800585508347, 0.18577003479003906, 0.3112637400627136, -0.03874506428837776, -0.14151622354984283, 0.06868103891611099, 0.09950216114521027, -0.01936010643839836, 0.3859795928001404, -0.06451579183340073, -0.27226388454437256, 0.10092976689338684, -0.43796226382255554], [-0.020301267504692078, -0.01273613516241312, 0.0703435018658638, 0.30772995948791504, -0.5668761730194092, 0.23234649002552032, 0.03589471057057381, -0.038461849093437195, 0.09916400909423828, -0.13398957252502441, 0.3022957742214203, -0.11021585762500763, 0.05285859853029251], [0.08696121722459793, -0.3068788945674896, -0.6478527188301086, 0.19323784112930298, 0.005820666905492544, 0.19405905902385712, -0.232656329870224, 0.1522224098443985, -0.3090634047985077, 0.02325613982975483, -0.5453089475631714, 0.052012115716934204, 0.6429480314254761], [0.2416943907737732, -0.2606077492237091, 0.2770612835884094, 0.20910444855690002, 0.0076352860778570175, 0.2503372132778168, -0.0754280760884285, 0.11724649369716644, 0.27792537212371826, 0.10653427988290787, -0.24723395705223083, -0.2665526568889618, 0.03291260078549385], [-0.016280150040984154, -0.09599751234054565, 0.1358174979686737, 0.2716232240200043, -0.8809459805488586, 0.03151114284992218, 0.30006280541419983, 0.03379857540130615, -0.24818621575832367, -0.19580009579658508, -0.20403721928596497, -0.05070182681083679, 1.0622789859771729], [0.010551489889621735, -0.052826639264822006, 0.3508196175098419, 0.3382295072078705, -1.0222088098526, 0.10680313408374786, 0.30908632278442383, -0.2814476191997528, -0.13928140699863434, -0.032683178782463074, 0.28659817576408386, -0.13287042081356049, 0.49173209071159363], [0.07455593347549438, -0.1396765261888504, -0.4583435654640198, 0.003976115491241217, 0.14014466106891632, 0.043785277754068375, -0.0428866446018219, 0.13101212680339813, -0.21169281005859375, 0.12084800004959106, -0.3051605820655823, 0.1495404839515686, 0.8346381187438965], [-0.05172702670097351, 0.14321893453598022, -0.17676934599876404, 0.34924548864364624, -0.24898506700992584, 0.1542423963546753, 0.3083808720111847, 0.2321581095457077, 0.43089723587036133, 0.07487853616476059, 0.052593205124139786, 0.013568133115768433, -0.2682967782020569], [0.038048163056373596, 0.24170108139514923, -0.23566463589668274, 0.19354890286922455, 0.19625550508499146, -0.06497352570295334, 0.1550912857055664, 0.12937894463539124, -0.43923625349998474, 0.11877457797527313, 0.4466536045074463, 0.0016199052333831787, 0.5991946458816528], [-0.002409402746707201, -0.021398479118943214, -0.14042514562606812, -0.2578125596046448, 0.5497835874557495, -0.18429943919181824, 0.010582865215837955, 0.09639618545770645, -0.27191632986068726, -0.08530659973621368, 0.0627451092004776, 0.0024694204330444336, 1.189257264137268], [0.00903280545026064, -0.08569502085447311, -0.5116468667984009, -0.16106507182121277, 0.34472253918647766, -0.04541459679603577, -0.12157261371612549, 0.12708961963653564, -0.05553401634097099, 0.16968242824077606, -0.021192388609051704, 0.10921305418014526, 0.8524234294891357], [-0.10027648508548737, -0.07118631154298782, 0.4064125120639801, -0.1526617705821991, 0.13471056520938873, 0.14897291362285614, 0.18857434391975403, 0.0036303596571087837, 0.2845771610736847, 0.29470205307006836, 0.21335770189762115, 0.13882207870483398, 0.7890982627868652], [0.028711969032883644, -0.08948463201522827, 0.13111107051372528, -0.24969732761383057, -0.2965494990348816, 0.00110455637332052, -0.03172394260764122, -0.16402959823608398, -0.03306596353650093, -0.05036970600485802, -0.46816128492355347, -0.010842353105545044, -0.08990301191806793], [-0.03364060819149017, -0.1258389800786972, 0.02571246027946472, -0.17364805936813354, -0.018251895904541016, -0.0893712043762207, -0.1751404106616974, -0.06971995532512665, -0.18542277812957764, 0.06621655821800232, 0.20140236616134644, -0.10025519132614136, 0.2687441408634186], [0.12540020048618317, -0.4351692497730255, -0.07625431567430496, -0.6440686583518982, -0.17380991578102112, 0.15681461989879608, -0.16727332770824432, -0.027039870619773865, -0.12738387286663055, -0.58357834815979, -0.19214357435703278, -0.2293844372034073, 0.02933705970644951], [-0.1711287796497345, -0.2354939579963684, -0.23491071164608002, -0.00045689940452575684, -0.07135236263275146, 0.23085293173789978, -0.2120964229106903, -0.090952068567276, 0.0544678270816803, 0.11504626274108887, 0.03674894571304321, 0.18863222002983093, -0.0374051034450531], [-0.05703915283083916, 0.19544005393981934, 0.04941300302743912, 0.34773704409599304, -0.5992684364318848, -0.19984394311904907, 0.23022551834583282, -0.041636157780885696, 0.14834895730018616, 0.03475971892476082, -0.14912092685699463, 0.2682175934314728, 1.4459865093231201], [-0.2222837209701538, -0.20895341038703918, -0.25335827469825745, -0.13858821988105774, -0.0795002430677414, 0.09683778882026672, 0.16042089462280273, -0.2040531486272812, 0.237347811460495, 0.0682215690612793, 0.18190228939056396, -0.037865668535232544, 0.041920870542526245], [-0.062243007123470306, 0.20703139901161194, 0.26793617010116577, 0.015827666968107224, -0.019888639450073242, 0.09687819331884384, 0.0760255753993988, -0.014902189373970032, 0.3395826816558838, 0.31381306052207947, 0.019575463607907295, 0.015725016593933105, 1.2794265747070312], [-0.18917407095432281, -0.12093792855739594, -0.24232082068920135, -0.23125816881656647, 0.11989027261734009, 0.02415168285369873, -0.2320633828639984, -0.053207844495773315, 0.029864907264709473, -0.03780604898929596, -0.10192221403121948, 0.16068029403686523, 0.009752064943313599], [0.01438997220247984, -0.2036154866218567, 0.270327627658844, 0.09552516788244247, -0.7964022159576416, 0.2955259680747986, 0.31599441170692444, -0.032747533172369, 0.3971838653087616, 0.21830765902996063, -0.2014547884464264, -0.16577883064746857, -0.5917913913726807], [-0.019535735249519348, 0.3442781865596771, 0.2508622407913208, 0.20530737936496735, 0.12252426147460938, -0.03500702977180481, -0.14417298138141632, -0.11898454278707504, -0.30878984928131104, -0.21344153583049774, 0.11217933148145676, -0.11573703587055206, 0.16456449031829834], [-0.08429588377475739, -0.1943724900484085, -0.10741452872753143, -0.1982651948928833, 0.04311501979827881, 0.11095696687698364, 0.19499921798706055, -0.17449161410331726, -0.02751155197620392, 0.1610686182975769, 0.24344578385353088, 0.0065736472606658936, -0.07052451372146606], [-0.07381545752286911, 0.2950896620750427, 0.13774986565113068, -0.33581414818763733, 0.17082831263542175, 0.12624405324459076, 0.2819116413593292, -0.2584150433540344, -0.5981805920600891, 0.05380401760339737, -0.1927802860736847, -0.174269899725914, 1.289502739906311], [0.16623392701148987, -0.04914223402738571, -0.025623682886362076, 0.14164124429225922, -0.061430759727954865, 0.25807008147239685, -0.04863186553120613, 0.1577480137348175, 0.2334630787372589, 0.10547248274087906, 0.497775673866272, -0.11629083752632141, -0.7869014739990234], [0.09906338900327682, 0.3062105178833008, 0.018317049369215965, 0.03788689896464348, -0.5898040533065796, -0.11352234333753586, 0.04425368458032608, -0.03266754373908043, -0.3470008671283722, -0.09166345745325089, -0.07703378796577454, -0.2755076587200165, 0.35035741329193115], [0.19975443184375763, 0.23398075997829437, -0.22981742024421692, 0.4674205183982849, 0.0717795267701149, 0.19541262090206146, -0.14984957873821259, 0.10262735188007355, -0.2242806851863861, 0.25720199942588806, -0.22519086301326752, 0.27405187487602234, 1.0597935914993286], [-0.005586793180555105, 0.08768602460622787, 0.3541031777858734, 0.3251761496067047, -0.13230203092098236, 0.15470273792743683, -0.14537115395069122, -0.04448303207755089, 0.33197635412216187, -0.10219812393188477, 0.0058757164515554905, -0.12675610184669495, -0.4077742099761963], [0.02334952913224697, -0.31505286693573, -0.08137881010770798, -0.1878032088279724, 0.38956567645072937, 0.0559363067150116, -0.06033718213438988, 0.35606706142425537, 0.17035900056362152, 0.2441425919532776, 0.5719612836837769, -0.2173328846693039, 0.1901855319738388], [-0.16110141575336456, -0.15315744280815125, 0.05713590979576111, -0.11886569857597351, 0.2721458375453949, 0.06183096766471863, -0.20003101229667664, 0.05948221683502197, -0.10847200453281403, -0.10610219836235046, -0.15263551473617554, -0.05027386546134949, 0.168695330619812], [0.0007272862712852657, -0.14001278579235077, -0.08830324560403824, -0.07862968742847443, 0.041562993079423904, -0.00756867928430438, 0.11687173694372177, -0.06719597429037094, -0.4110846221446991, 0.09727533161640167, 0.124037966132164, -0.1524045467376709, 1.2469552755355835], [-0.00038739386945962906, 0.23494645953178406, 0.2319238781929016, 0.47087711095809937, -0.20033054053783417, 0.2223767638206482, 0.21630169451236725, -0.037430912256240845, 0.40372830629348755, -0.016703173518180847, -0.06911550462245941, -0.013099431991577148, 0.9801698327064514], [-0.008214149624109268, -0.04590076580643654, 0.024984369054436684, 0.02714255265891552, 0.13569046556949615, -0.11842624098062515, 0.15986113250255585, -0.05650434270501137, 0.26563960313796997, 0.22444602847099304, -0.29108819365501404, -0.254410982131958, -0.5791636109352112], [0.004047175869345665, 0.17940197885036469, -0.3260112404823303, 0.04254712536931038, -0.07246299833059311, -0.008705060929059982, -0.20170941948890686, 0.22032397985458374, -0.1477663516998291, 0.0070518432185053825, 0.67995285987854, 0.23891618847846985, 0.7200451493263245], [-0.016417544335126877, 0.2448233664035797, 0.24283505976200104, 0.25572824478149414, -0.8590900301933289, 0.16781331598758698, -0.15036199986934662, 0.20547612011432648, 0.05476991832256317, 0.22062194347381592, 0.054265402257442474, -0.26257553696632385, 0.5008590817451477], [0.14976371824741364, 0.22748099267482758, 0.1718786209821701, -0.011316763237118721, -0.6096416115760803, -0.13652287423610687, -0.03754107281565666, 0.01832728460431099, 0.4342542588710785, -0.016612645238637924, -0.10816216468811035, 0.16415321826934814, -0.6297688484191895], [0.049110542982816696, -0.08659595996141434, 0.019250012934207916, -0.15017169713974, -0.11450021713972092, -0.042827531695365906, -0.4353688657283783, -0.4094947576522827, -0.22725817561149597, -0.3705368638038635, 0.20782309770584106, 0.23559972643852234, -0.3994707465171814], [-0.028256351128220558, 0.36251091957092285, 0.19323579967021942, 0.19908201694488525, -0.29275885224342346, -0.2067185491323471, -0.05512267351150513, -0.43568477034568787, 0.10954296588897705, -0.20101816952228546, 0.40986937284469604, -0.23233191668987274, -0.43270212411880493], [-0.005560064688324928, 0.1695481538772583, 0.10600676387548447, 0.03132566437125206, -0.31426435708999634, -0.004863792099058628, -0.18395404517650604, 0.09202120453119278, 0.4902088940143585, 0.10090697556734085, 0.06068633496761322, -0.23487499356269836, -1.0118763446807861], [0.23371672630310059, -0.04717063158750534, 0.034428056329488754, -0.1452617198228836, 0.01294337771832943, 0.16794204711914062, -0.007462351117283106, -0.1400129497051239, 0.043831631541252136, 0.2301643341779709, 0.069886714220047, -0.13564227521419525, 0.4817116856575012], [-0.023491451516747475, 0.1911647617816925, 0.22649487853050232, 0.341939777135849, -0.447122722864151, -0.07505790144205093, -0.11093408614397049, -0.21204186975955963, 0.278618186712265, 0.16614936292171478, 0.015932904556393623, -0.15664909780025482, -0.6754415035247803], [0.01771354489028454, 0.12019746750593185, -0.4801309406757355, -0.20535054802894592, 0.047900985926389694, -0.20364370942115784, -0.16449208557605743, -0.01489812321960926, -0.17064613103866577, -0.08451596647500992, -0.7781947255134583, 0.07372888922691345, 0.6767295598983765], [0.09129509329795837, -6.41274600639008e-05, 0.22402653098106384, -0.21675655245780945, -0.3730982542037964, -0.2071681171655655, 0.11253037303686142, 0.05358599126338959, 0.041274528950452805, 0.15243561565876007, -0.48998019099235535, -0.06879770755767822, 0.5229158401489258], [0.08269825577735901, 0.34216368198394775, 0.17213784158229828, 0.42199838161468506, -0.6128178834915161, -0.06852436065673828, -0.17117471992969513, 0.09546330571174622, -0.06190057843923569, -0.32452189922332764, -0.08154825866222382, -0.1436457335948944, -0.5688243508338928], [-0.011595447547733784, -0.03724967688322067, 0.10989353060722351, -0.7107558250427246, -0.1246524378657341, 0.006758121773600578, -0.15998898446559906, 0.20527644455432892, 0.4141318202018738, 0.26685401797294617, -0.3353123068809509, -0.04893329739570618, -0.6012628674507141], [0.001783817890100181, -0.22946251928806305, 0.0027053887024521828, -0.22554990649223328, 0.36244550347328186, -0.03086175210773945, 0.1255185902118683, 0.03402853012084961, -0.22616887092590332, -0.1483091413974762, 0.307878702878952, -0.15798449516296387, 1.3034038543701172], [0.0043027629144489765, 0.04171290993690491, -0.053109392523765564, -0.015339895151555538, 0.14762535691261292, -0.0877312421798706, -0.056193653494119644, 0.1311161369085312, -0.21923165023326874, -0.130375474691391, -0.16960924863815308, 0.09027966856956482, 1.2910425662994385], [-0.1230914294719696, 0.20887716114521027, 0.03543064743280411, -0.29678234457969666, 0.3775366246700287, -0.06059913709759712, 0.008368094451725483, -0.22973132133483887, 0.09221941977739334, 0.45361587405204773, -0.38745859265327454, 0.23168572783470154, 0.06893180310726166], [-0.0002534119412302971, 0.015320089645683765, 0.18111884593963623, 0.017272423952817917, -0.49651098251342773, 0.13201352953910828, 0.16901452839374542, -0.14916716516017914, -0.014892010018229485, 0.2290012389421463, -0.19650274515151978, 0.13512197136878967, 0.5351698994636536], [0.1756553053855896, -0.16815119981765747, 0.023925453424453735, -0.050637681037187576, 0.3826127350330353, -0.20541605353355408, 0.18516755104064941, 0.08942209184169769, -0.5000290870666504, 0.32819440960884094, -0.1690341830253601, 0.17666399478912354, 0.99241042137146], [-0.12596116960048676, -0.24937447905540466, 0.13057444989681244, 0.29548442363739014, -0.025215020403265953, 0.20105043053627014, -0.28039321303367615, -0.27727189660072327, 0.18740145862102509, -0.26621949672698975, -0.08923399448394775, -0.08948154747486115, 0.12950050830841064], [0.00041984239942394197, -0.03486383333802223, 0.051366597414016724, 0.021313538774847984, 0.39107826352119446, 0.18677526712417603, -0.0800035297870636, 0.1777200847864151, -0.30336612462997437, -0.0934678390622139, 0.004249556455761194, -0.11288870871067047, 0.8511781692504883], [0.20825108885765076, -0.178645059466362, 0.16580486297607422, 0.3554820418357849, 0.21724805235862732, 0.21378810703754425, -0.05905742570757866, 0.12719261646270752, 0.1315513253211975, -0.21966610848903656, 0.3273316025733948, 0.18100014328956604, 0.8768410682678223], [0.12176185101270676, 0.11632037162780762, 0.07870099693536758, -0.26225346326828003, -0.4716726541519165, -0.008856644853949547, 0.12541571259498596, 0.24422304332256317, 0.13903315365314484, -0.11737952381372452, -0.22109121084213257, -0.03339025378227234, 0.30790281295776367], [0.1741100698709488, 0.2445187270641327, 0.07946301251649857, -0.00827697478234768, -0.07892090082168579, 0.13514377176761627, 0.10917535424232483, -0.10825514048337936, 0.3007265627384186, -0.19279026985168457, 0.06240206956863403, -0.03474840521812439, -0.41854146122932434], [0.05579400807619095, -0.21223556995391846, -0.4765278398990631, 0.40695756673812866, -0.09728322923183441, -0.26015758514404297, -0.2907496690750122, 0.01854846440255642, -0.08095727860927582, 0.22027690708637238, -0.36077791452407837, -0.15519177913665771, -0.34106743335723877], [8.213535329559818e-05, 0.297542005777359, 0.1973877251148224, 0.29208481311798096, 0.1228191927075386, 0.28199470043182373, -0.195295050740242, -0.3731681704521179, 0.034741874784231186, 0.1583278924226761, 0.26106131076812744, -0.17456072568893433, -0.1010231226682663], [-0.00961287785321474, 0.014254780486226082, -0.04820755124092102, -0.6247574687004089, -0.2110441029071808, -0.033034976571798325, -0.13921253383159637, -0.183201402425766, 0.36302611231803894, 0.2048647254705429, -0.05045277997851372, -0.06849770247936249, -0.592276930809021], [0.17635589838027954, 0.0818454846739769, -0.023830318823456764, -0.2494460642337799, -0.3485238254070282, -0.28188657760620117, -0.053237855434417725, 0.061256106942892075, 0.03950487822294235, 0.22833681106567383, 0.2402023822069168, 0.08899277448654175, -0.3949655294418335], [0.00035404361551627517, 0.0584978312253952, -0.06510140001773834, -0.2816644310951233, -0.33314380049705505, 0.02989680878818035, -0.17173026502132416, 0.19745580852031708, 0.5728181004524231, -0.10732198506593704, -0.2258347123861313, 0.27653810381889343, -0.5120818018913269], [0.0640299916267395, 0.1847960352897644, -0.3614051043987274, 0.5812656283378601, 0.3174248933792114, -0.08327735960483551, -0.16628433763980865, -0.1457691788673401, 0.015288294292986393, 0.033070024102926254, 0.024309981614351273, 0.2657158672809601, -0.1780460774898529], [-0.23820143938064575, -0.26118385791778564, 0.10729917883872986, 0.12620475888252258, 0.19307279586791992, -0.07532094419002533, -0.12823070585727692, -0.033789098262786865, 0.1486217975616455, -0.09057039022445679, -0.0791819840669632, -0.25171831250190735, -0.17472180724143982], [0.13078251481056213, -0.1503273844718933, -0.18634264171123505, -0.29733094573020935, 0.3016861379146576, -0.2106035053730011, 0.008180676959455013, -0.11207633465528488, -0.30131155252456665, 0.23152849078178406, 0.15959791839122772, 0.08827716112136841, 0.06903591006994247], [0.0014977927785366774, 0.23308689892292023, 0.0044771782122552395, 0.3418830335140228, 0.4043358266353607, 0.0876287966966629, 0.0810924619436264, -0.07719787955284119, -0.3351534903049469, -0.10160331428050995, -0.10635307431221008, 0.14601776003837585, -0.22822429239749908], [-0.0062793707475066185, 0.15124833583831787, 0.22098372876644135, -0.010068370960652828, -0.28656312823295593, -0.17229844629764557, 0.17852158844470978, 0.13156931102275848, 0.5018265247344971, 0.15625302493572235, -0.3280094563961029, -0.13923245668411255, -0.7499092817306519], [0.15520437061786652, -0.012586073018610477, -0.134847030043602, -0.1654699146747589, 0.060078028589487076, -0.11123307049274445, 0.07823207974433899, 0.029854968190193176, 0.44621026515960693, -0.25788968801498413, 0.17434599995613098, -0.11350923776626587, -0.256034791469574], [0.07586932182312012, 0.2903138995170593, -0.09139768034219742, -0.19915369153022766, -0.199098601937294, -0.33925068378448486, 0.03463442996144295, -0.019156984984874725, -0.16137954592704773, 0.03470531851053238, -0.006300617009401321, 0.14575394988059998, -0.12654560804367065], [0.02627386711537838, -0.2849624454975128, -0.37342825531959534, 0.4030531048774719, 0.42359909415245056, -0.010684505105018616, -0.07229901105165482, 0.18439936637878418, 0.32500341534614563, -0.2375243902206421, -0.5546656250953674, 0.0822133719921112, 0.46744027733802795], [0.19051174819469452, -0.0729261115193367, -0.31792160868644714, 0.09912219643592834, 0.22661827504634857, 0.27457067370414734, -0.23343877494335175, -0.03306887298822403, -0.26390716433525085, 0.4275018870830536, -0.1601547747850418, -0.2313876748085022, 0.2638010084629059], [0.18325857818126678, 0.07397426664829254, -0.22902904450893402, 0.1256057769060135, -0.39031103253364563, 0.16080856323242188, 0.14256420731544495, -0.10607755929231644, 0.44110968708992004, 0.19644170999526978, -0.0170605406165123, -0.14279386401176453, -0.6667008399963379], [-0.02388651669025421, 0.11762060970067978, -0.2944236695766449, 0.4484339952468872, -0.28940314054489136, 0.051629018038511276, -0.12677986919879913, -0.09681016206741333, 0.3366822898387909, 0.20782217383384705, 0.41989681124687195, -0.10631069540977478, -0.3372723460197449], [0.012670899741351604, 0.11758726090192795, -0.0222643930464983, 0.16759948432445526, -0.5536836385726929, 0.058118633925914764, 0.2914508879184723, -0.04757630079984665, 0.47429198026657104, 0.062190379947423935, -0.04489640146493912, 0.02013939619064331, -0.5619276762008667], [0.10898391902446747, -0.05911841243505478, 0.13983827829360962, 0.07268935441970825, -0.28067418932914734, 0.03842238336801529, -0.006209406070411205, -0.023748083040118217, 0.30122941732406616, 0.004250507336109877, -0.05493194982409477, -0.21114149689674377, -0.5547372698783875], [-0.23789425194263458, -0.08533984422683716, 0.054916948080062866, 0.24593880772590637, 0.1904166340827942, -0.21174469590187073, -0.23053671419620514, -0.09934183955192566, 0.1523444950580597, 0.04161688685417175, 0.1254773736000061, -0.10052141547203064, 0.08442643284797668], [-0.022821232676506042, 0.03928353264927864, 0.15770208835601807, -0.20895572006702423, -0.005021869204938412, -0.17885325849056244, -0.052461177110672, 0.3008558750152588, 0.5115010738372803, -0.2949838936328888, 0.0908929631114006, -0.18995118141174316, -0.6845937371253967], [-0.009265726432204247, 0.2727771997451782, -0.21930257976055145, 0.32301172614097595, -0.09396607428789139, 0.22485564649105072, -0.14540550112724304, 0.007779885549098253, 0.24813582003116608, -0.15781022608280182, 0.1529306322336197, -0.18478959798812866, 0.4296198785305023], [0.047735851258039474, -0.10319327563047409, 0.19228334724903107, -0.2955418825149536, -0.33574017882347107, -0.26184985041618347, -0.1709165871143341, -0.051919739693403244, -0.22209203243255615, -0.16369318962097168, 0.01379216369241476, 0.15319150686264038, 0.11329594254493713], [0.007118025328963995, 0.2754543721675873, -0.2536460757255554, 0.47894954681396484, -0.43485864996910095, 0.00023895232880022377, 0.17843541502952576, -0.051830075681209564, -0.08975890278816223, -0.12952560186386108, 0.254377543926239, -0.08707623183727264, -0.14488832652568817], [0.0073776948265731335, 0.17756180465221405, 0.40060219168663025, 0.2998723089694977, -0.21657834947109222, -0.2791832685470581, 0.11776840686798096, 0.0907311961054802, 0.019115060567855835, -0.11391285061836243, -0.25731414556503296, 0.05769309401512146, 0.4911245107650757], [0.04398151487112045, 0.05214086174964905, 0.11329755932092667, -0.3213827908039093, -0.5053954124450684, 0.08991380780935287, 0.28988924622535706, -0.20294876396656036, 0.03248731046915054, 0.0763302594423294, 0.0008673252887092531, -0.050181254744529724, -0.9904041290283203], [-0.032729372382164, 0.013910695910453796, -0.19957810640335083, 0.10603078454732895, -0.05677443742752075, -0.21264739334583282, 0.2819896936416626, -0.12112227827310562, 0.10286473482847214, 0.37971213459968567, 0.0425814613699913, 0.2432454526424408, -0.459882915019989], [0.13636618852615356, -0.0782734826207161, 0.19670715928077698, -0.30173617601394653, -0.1592262089252472, -0.014101105742156506, 0.27516812086105347, 0.1389230489730835, 0.19080187380313873, -0.2243795096874237, 0.06588078290224075, 0.2345937192440033, -0.042699724435806274], [-0.0016981081571429968, 0.038448113948106766, 0.08497190475463867, -0.5671743154525757, -0.8513652086257935, -0.035454973578453064, -0.03235284239053726, 0.014206254854798317, 0.13719135522842407, 0.03356604650616646, -0.2895868122577667, 0.03602242469787598, -0.8384388089179993], [0.0826677456498146, -0.11101678758859634, 0.10796266049146652, -0.0013731962535530329, -0.31183871626853943, 0.20596693456172943, -0.1322936713695526, -0.2110634446144104, 0.32703539729118347, -0.31398868560791016, 0.16095958650112152, -0.24592535197734833, -0.49393969774246216], [0.01887797750532627, 0.0775345116853714, -0.5217646360397339, -0.001509348163381219, 0.22037522494792938, 0.22036586701869965, -0.16473466157913208, -0.05458709970116615, 0.27945688366889954, 0.2490972876548767, -0.6317222714424133, 0.21083655953407288, 0.23711462318897247], [-0.03550348058342934, 0.33847418427467346, 0.009667023085057735, -0.15569935739040375, -0.09186449646949768, 0.2596706449985504, 0.05021754279732704, -0.3151869475841522, -0.44333475828170776, 0.15382055938243866, 0.31078845262527466, 0.10742157697677612, 0.07403135299682617], [-0.00994681753218174, 0.05258253589272499, 0.17004726827144623, 0.04007914662361145, -0.13154274225234985, 0.017090510576963425, 0.013073576614260674, -0.061228297650814056, 0.29329466819763184, 0.27358514070510864, -0.035302646458148956, 0.27374574542045593, -1.0644391775131226], [-0.09300469607114792, 0.08112519979476929, 0.18210956454277039, 0.2175176441669464, -0.2758786678314209, 0.0847526490688324, 0.2561977207660675, -0.18333134055137634, -0.4748010039329529, -0.20867709815502167, -0.05454637482762337, 0.1973666250705719, 0.6596542596817017], [-0.028474802151322365, -0.11658858507871628, 0.36052513122558594, 0.3860010802745819, 0.004165650811046362, -0.08706438541412354, -0.007784022483974695, -0.2256881445646286, 0.12891587615013123, 0.311558336019516, 0.16573482751846313, -0.0656282901763916, -0.2546825408935547], [0.1652315855026245, 0.1374078392982483, 0.06668023020029068, 0.19716250896453857, -0.23201681673526764, -0.11498701572418213, -0.14266933500766754, 0.12346838414669037, -0.408830851316452, -0.05629744380712509, -0.1025664284825325, 0.09094032645225525, 0.6486366391181946], [0.22234822809696198, 0.11347068846225739, -0.07925208657979965, -0.54229736328125, 0.29114970564842224, -0.06737926602363586, -0.13223326206207275, 0.23878087103366852, -0.4845009744167328, -0.036217667162418365, 0.04434119910001755, 0.10626164078712463, 1.6068201065063477], [-0.02428622916340828, 0.15812018513679504, -0.08858480304479599, -0.06887014210224152, -0.3510880470275879, -0.03122207336127758, -0.04986468330025673, -0.12459968775510788, 0.5321555137634277, 0.21375006437301636, -0.2548072934150696, 0.18919503688812256, -0.47688010334968567], [-0.006966575048863888, -0.22205093502998352, 0.0017155110836029053, 0.020151913166046143, 0.054250217974185944, 0.04296240955591202, -0.08536288142204285, 0.15057805180549622, -0.08450481295585632, -0.16360896825790405, -0.19693252444267273, 0.04543080925941467, -0.03657509386539459], [-0.028133448213338852, 0.08724034577608109, 0.1982017457485199, 0.13145866990089417, -0.2488643229007721, -0.18870976567268372, 0.176750048995018, 0.12138797342777252, 0.504479169845581, 0.09708377718925476, 0.24501775205135345, 0.1043081283569336, -0.7751108407974243], [0.04447731003165245, 0.03234344720840454, 0.1531243771314621, -0.16059504449367523, -0.3424092233181, 0.02896413393318653, 0.2555067241191864, -0.22368095815181732, 0.5518469214439392, 0.07587368786334991, -0.13596941530704498, -0.08276194334030151, 0.0662938803434372], [0.07228705286979675, 0.2659425139427185, -0.15084996819496155, -0.27606216073036194, -0.008741379715502262, -0.10103007405996323, -0.08059468865394592, 0.04605254903435707, 0.3007209599018097, -0.21659985184669495, -0.18417811393737793, 0.03326079249382019, -0.5626400709152222]], "b": [0.24414034187793732, -0.007188908290117979, -0.06859689205884933, 0.19593928754329681, -0.06445882469415665, 0.035543620586395264, 0.3259660303592682, -0.24948561191558838, -0.11771541833877563, 0.05570261552929878, -0.0009260898805223405, 0.15888944268226624, -0.22196097671985626, 0.026138605549931526, 0.025254543870687485, -0.006325651425868273, 0.14331050217151642, 0.31062009930610657, 0.32368749380111694, -0.12210361659526825, 0.27891671657562256, -0.21208079159259796, -0.0720265582203865, -0.17902542650699615, -0.043126821517944336, 0.05924832820892334, -0.1200408786535263, -0.23291493952274323, -0.09627288579940796, 0.19731350243091583, 0.06125083565711975, -0.2731943130493164, -0.06665997952222824, 0.34179022908210754, -0.03623014688491821, 0.12875133752822876, -0.003629574552178383, 0.11443868279457092, 0.04562465101480484, 0.4395279288291931, -0.053378716111183167, -0.1770133078098297, 0.27808839082717896, -0.19144362211227417, -0.03458547219634056, 0.08441601693630219, -0.0051781912334263325, -0.16832804679870605, 0.07822991162538528, 0.23456895351409912, -0.09713951498270035, -0.1565629243850708, 0.14962369203567505, -0.5378599762916565, 0.20132464170455933, 0.26536110043525696, 0.43223676085472107, -0.1229337751865387, -0.028638644143939018, 0.428020179271698, 0.05637309327721596, 0.35120120644569397, 0.16186083853244781, 0.3157272934913635, 0.047259774059057236, 0.2099311202764511, 0.028448408469557762, -0.034324198961257935, -0.3105338215827942, 0.44301363825798035, -0.09089957177639008, -0.18033912777900696, 0.051309991627931595, -0.003298640251159668, 0.09818896651268005, -0.02967018634080887, 0.018619732931256294, 0.3781057894229889, 0.1427244395017624, 0.021127499639987946, 0.14921440184116364, -0.1823902130126953, -0.25620391964912415, 0.021873323246836662, -0.20727862417697906, -0.01468815840780735, 0.3478579819202423, -0.16589686274528503, -0.25789523124694824, 0.0013494789600372314, -0.15479153394699097, 0.10739120841026306, 0.03127676993608475, 0.18294233083724976, -0.09513118118047714, 0.21309641003608704, -0.0969935804605484, 0.3616091310977936, 0.0497913658618927, 0.3538074791431427, -0.16438400745391846, 0.2947244346141815, -0.04406464099884033, -0.09632545709609985, -0.07988111674785614, -0.07635099440813065, -0.2238837331533432, 0.07165635377168655, -0.251914381980896, 0.06482040882110596, 0.12381883710622787, -0.19729556143283844, 0.03742329031229019, 0.4558846056461334, 0.11741338670253754, 0.09338192641735077, -0.06320636719465256, 0.24841782450675964, 0.08739560097455978, 0.03437238931655884, -0.316266804933548, 0.07697853446006775, 0.3402210772037506, 0.04532730206847191, 0.26559117436408997, 0.17457745969295502, -0.23704911768436432, 0.40447109937667847, -0.18854065239429474, -0.1767740696668625, 0.24364657700061798, 0.048699185252189636, 0.09758885204792023, -0.21741580963134766, -0.06464029848575592, -0.18052878975868225, 0.4143240451812744, 0.1588122695684433, -0.2808731496334076, 0.21996112167835236, -0.18014900386333466, 0.5429394245147705, 0.317154198884964, 0.2780296504497528, -0.06669855117797852, 0.09233806282281876, 0.008184376172721386, -0.20112012326717377, 0.04372231289744377, 0.36502888798713684, -0.20762063562870026, -0.26521608233451843, 0.47932735085487366, 0.4769594967365265, 0.047856271266937256, -0.18964791297912598, 0.06806477904319763, 0.2783129811286926, -0.23757697641849518, 0.2717409133911133, 0.1508910208940506, 0.4136485159397125, 0.28826484084129333, 0.21256184577941895, 0.10291757434606552, -0.18928124010562897, 0.32301878929138184, -0.0004200107359793037, -0.16434253752231598, 0.25396230816841125, 0.4968421161174774, 0.15289264917373657, 0.04150700569152832, -0.18654471635818481, -0.22408033907413483, -0.1574627012014389, -0.12316624075174332, -0.26742440462112427, 0.3824043571949005, -0.046289339661598206, -0.09744375199079514, -0.2957271337509155, -0.2013607621192932, 0.4699475169181824, 0.12594734132289886, -0.029345937073230743, -0.15394273400306702, -0.016445647925138474, -0.10474134236574173, 0.03882625699043274, -0.04503538832068443, 0.11788757145404816, 0.1038234531879425, 0.30860820412635803, 0.35515591502189636, -0.050670016556978226, 0.12513406574726105, 0.044696420431137085, -0.0005553261726163328, -0.1809663623571396, 0.2484222799539566, 0.5524886250495911, -0.002572696190327406, -0.09430082887411118, 0.09461469948291779, 0.08867271989583969, -0.17345669865608215, 0.13267242908477783, -0.2568935751914978, -0.025280263274908066, 0.2817957401275635, 0.048816315829753876, -0.05217777565121651, 0.12206012010574341, -0.27198225259780884, 0.07454052567481995, -0.22270019352436066, 0.22533008456230164, 0.30542945861816406, -0.11755380034446716, 0.05689170956611633, -0.005306720733642578, 0.030442815274000168, -0.25248515605926514, 0.03098909743130207, 0.24838586151599884, -0.16457314789295197, -0.046483349055051804, 0.12194426357746124, 0.37796545028686523, 0.27910760045051575, -0.036420729011297226, 0.2793928384780884, -0.06405708193778992, 0.02197130210697651, 0.39710575342178345, 0.185097336769104, -0.11324562877416611, 0.2270173877477646, 0.10527119785547256, 0.4029523432254791, 0.22006730735301971, 0.2921058237552643, 0.017755700275301933, -0.013980926014482975, -0.10696608573198318, 0.10110118985176086, -0.24880804121494293, 0.3823048174381256, -0.21590733528137207, 0.10525963455438614, 0.21156920492649078, -0.06302791833877563, 0.2515101134777069, -0.2055625170469284, 0.39735546708106995]}, {"W": [[-0.1836492270231247, 0.00672901188954711, 0.04536261409521103, -0.034467510879039764, -0.04458719119429588, -0.022407978773117065, 0.06604450196027756, 0.07428815215826035, -0.016108181327581406, 0.02447032555937767, 0.039296556264162064, -0.09911105036735535, 0.06864356249570847, 0.09736409783363342, 0.0765250027179718, 0.0716518983244896, 0.034957729279994965, -0.05917780473828316, -0.10281132906675339, -0.06093614548444748, -0.05473920330405235, 0.057914458215236664, 0.09814570844173431, 0.08638304471969604, 0.10435855388641357, 0.007259376347064972, 0.023323016241192818, -0.03265981376171112, -0.012359052896499634, 0.039943959563970566, 0.010198998264968395, 0.0882410854101181, 0.034034259617328644, -0.015562506392598152, 0.049430448561906815, -0.03841134533286095, -0.036894541233778, -0.09843915700912476, 0.03922460228204727, -0.026256252080202103, -0.013825379312038422, 0.003096960484981537, 0.0029640640132129192, 0.13611796498298645, 0.022504443302750587, 0.05556705966591835, 0.030665850266814232, -0.05388721078634262, 0.02969517558813095, 0.06030268594622612, -0.02133237011730671, -0.014884994365274906, 0.03445994853973389, 0.09943973273038864, -0.12541283667087555, 0.07650693506002426, 0.011098752729594707, -0.032695937901735306, 0.05538162589073181, -0.013824199326336384, 0.010426370427012444, 0.07194631546735764, 0.032869063317775726, -0.05429163575172424, -0.05349263548851013, -0.003069076454266906, -0.01862339675426483, 0.4997157156467438, 0.11982112377882004, 0.048509370535612106, 0.00812973827123642, 0.06433223932981491, 0.03131641075015068, 0.02003970742225647, 0.04484547674655914, 0.006381224375218153, -0.07140843570232391, 0.12001344561576843, -0.012380284257233143, 0.08630432188510895, -0.059384338557720184, 0.25169530510902405, -0.010189585387706757, -0.04851877689361572, 0.05645527318120003, 0.05279124528169632, -0.03079928457736969, 0.003156434977427125, 0.038415685296058655, -0.001005813479423523, 0.016415342688560486, 0.06408198177814484, -0.021670788526535034, 0.02184692583978176, 0.21083667874336243, 0.41523632407188416, 0.04552323371171951, -0.04456832632422447, 0.011737941764295101, -0.0036193751730024815, 0.06697987020015717, -0.024368321523070335, -0.16315777599811554, -0.01911287009716034, 0.01187429390847683, 0.01968500390648842, -0.005517631769180298, 0.08190792053937912, 0.03644561022520065, 0.058287229388952255, 0.04119095951318741, 0.009722303599119186, -0.029924705624580383, 0.004246670287102461, 0.07167001813650131, 0.06505870819091797, 0.01008802279829979, 0.02237425372004509, -0.026875274255871773, 0.061580754816532135, -0.03981016203761101, -0.026823699474334717, -0.03566833585500717, -0.06081881374120712, -0.05648805573582649, -0.02068580873310566, 0.07857080549001694, 0.2489960789680481, 0.027633436024188995, -0.09049047529697418, -0.02099485509097576, 0.03427994251251221, -0.014509061351418495, -0.0037947685923427343, 0.0036294683814048767, 0.06201183795928955, -0.12349999696016312, -0.038604479283094406, 0.12354573607444763, 0.0012593681458383799, 0.03762773796916008, 0.0767945945262909, -0.027122678235173225, 0.05269848555326462, -0.021205931901931763, -0.01797737553715706, 0.033257897943258286, 0.0344516783952713, 0.013780934736132622, 0.08381901681423187, 0.04642332345247269, 0.049850836396217346, 0.004716724157333374, -0.09958204627037048, -0.005133190657943487, -0.027823928743600845, -0.08052544295787811, 0.02308664284646511, 0.011243301443755627, -0.08631272614002228, 0.0326499380171299, -0.06152668222784996, -0.042962681502103806, 0.009766217321157455, 0.03165141120553017, 0.13159464299678802, 0.0470699705183506, 0.011929900385439396, 0.043432630598545074, 0.010614696890115738, 0.048607222735881805, 0.011699455790221691, 0.00823226012289524, 0.019495554268360138, 0.03139813244342804, -0.04038781672716141, 0.01730467565357685, -0.007617838680744171, -0.020417094230651855, 0.001414462924003601, 0.07127753645181656, 0.1601412445306778, 0.01168234646320343, -0.023041490465402603, -0.0013054899172857404, -0.025528106838464737, -0.04489210993051529, 0.006282068323343992, 0.07277975231409073, -0.01712217926979065, 0.131036177277565, 0.05428138002753258, 0.052259527146816254, 0.006799087859690189, 0.06564529985189438, 0.0411556102335453, 0.006901256740093231, 0.006303395610302687, -0.1140073910355568, -0.015675486996769905, -0.0314360186457634, -0.08161329478025436, 0.009672082960605621, -0.013880537822842598, 0.2718089818954468, 0.03328867256641388, -0.10609207302331924, 0.12371388077735901, 0.10577872395515442, 0.005162948276847601, 0.11553845554590225, -0.016370275989174843, -0.002391669899225235, 0.06355639547109604, 0.016495907679200172, 0.003121534828096628, -0.018601682037115097, -0.05344526469707489, -0.04294624552130699, -0.23307840526103973, -0.040295131504535675, 0.002647027373313904, -0.03632567822933197, 0.11277052760124207, 0.10218293219804764, -0.037288032472133636, 0.03765302523970604, 0.010402633808553219, 0.06332515925168991, -0.007677680347114801, 0.29463186860084534, 0.03200493007898331, -0.007006082683801651, -0.022613540291786194, -0.01421948242932558, -0.12826479971408844, -0.1337428241968155, -0.2065373659133911, -0.03160355985164642, 0.07022904604673386, -0.08127832412719727, 0.059007883071899414, -0.16592822968959808, -0.015993734821677208, 0.035796068608760834, 0.027672210708260536, -0.00868175644427538, -0.05824780836701393, 0.05964548885822296, -0.030871281400322914, -0.05343510955572128, -0.06114741414785385, 0.048915788531303406, -0.0004237124230712652, -0.0004729430947918445, -0.06436685472726822], [-0.11088252067565918, 0.0036098866257816553, -0.1790398806333542, -0.02313089929521084, 0.028078699484467506, -0.021853037178516388, 0.0612889863550663, -0.009376566857099533, 0.06431856751441956, 0.025243645533919334, 0.026589030399918556, -0.03764810413122177, -0.11588408052921295, -0.07182364910840988, 0.11577989906072617, 0.04131065309047699, 0.011044548824429512, 0.01355122309178114, 0.037246234714984894, -0.011814072728157043, -0.08863019198179245, 0.03750132396817207, -0.05930707976222038, -0.12162083387374878, 0.12041281908750534, 0.03387311100959778, 0.0494825541973114, 0.04449740797281265, -0.05064425617456436, 0.01983840949833393, 0.017781518399715424, -0.009733877144753933, -0.15450064837932587, 0.056602444499731064, 0.023599160835146904, -0.06618540734052658, -0.14532622694969177, -0.06064122915267944, -0.013904696330428123, 0.016697384417057037, -0.009618937969207764, 0.035271987318992615, 0.11569780111312866, -0.026380503550171852, 0.0190458744764328, -0.04657977074384689, -0.06056119129061699, -0.09497616440057755, -0.08676379173994064, -0.07780206948518753, 0.019705524668097496, 0.1466548889875412, 0.046442918479442596, 0.12630903720855713, -0.4274277091026306, -0.0024970630183815956, 0.06442926079034805, -0.0137247359380126, -0.025558456778526306, 0.16248156130313873, 0.11225641518831253, -0.04332249239087105, -0.00587444705888629, -0.18048420548439026, -0.08355308324098587, -0.04065721109509468, -0.029260434210300446, -0.13499000668525696, 0.0009956232970580459, -0.11795966327190399, 0.020329192280769348, -0.1520683318376541, 0.030908852815628052, -0.046098850667476654, -0.060720011591911316, -0.026563480496406555, -0.6559248566627502, 0.09042129665613174, 0.055841755121946335, 0.06027042493224144, -0.21003876626491547, 0.22787229716777802, 0.044453658163547516, 0.0793759748339653, 0.04841102659702301, 0.0020029216539114714, -0.03672553971409798, 0.010295460000634193, 0.1300450712442398, 0.025751173496246338, 0.05002459138631821, 0.022266793996095657, -0.06606446951627731, -0.04682087153196335, 0.031703341752290726, -0.25786298513412476, 0.058793604373931885, -0.04211529716849327, 0.04283778741955757, -0.03057055175304413, -0.017659615725278854, -0.11381139606237411, -0.19587144255638123, -0.04465164989233017, 0.04446815699338913, 0.006903594825416803, -0.02739451825618744, -0.0020027984865009785, -0.025687256827950478, -0.3034052848815918, 0.05313190072774887, -0.06447522342205048, 0.033372752368450165, 0.022694289684295654, -0.04691273346543312, 0.06899072229862213, 0.07625554502010345, -0.16996027529239655, -0.06406761705875397, 0.012207768857479095, -0.017786428332328796, 0.04794291406869888, -0.03770874813199043, -0.055905599147081375, 0.014906344935297966, 0.04876932501792908, 0.1047222688794136, -0.06771142780780792, -0.04711649566888809, 0.14314311742782593, 0.0019391601672396064, 0.008411952294409275, 0.034041840583086014, -0.1575450748205185, -0.03859987109899521, -0.015742264688014984, -0.20365242660045624, 0.05599025636911392, 0.0027081044390797615, 0.047281961888074875, -0.10500364750623703, 0.09918976575136185, -0.016627095639705658, 0.02024758793413639, 0.012807760387659073, 0.06841713935136795, 0.15598560869693756, 0.01748909056186676, 0.002351701259613037, -0.1553637981414795, 0.01735403947532177, -0.07071367651224136, 0.07218748331069946, -0.02205054461956024, -0.05915505066514015, 0.0319824256002903, 0.004509275779128075, 0.040494583547115326, 0.0017195359105244279, -0.422121524810791, -0.0032344271894544363, 0.08802428096532822, 0.04510390758514404, -0.03836950659751892, 0.12899594008922577, 0.11036920547485352, 0.035517316311597824, -0.051645830273628235, 0.03294320032000542, 0.23823274672031403, 0.03615923970937729, 0.022000575438141823, -0.06517676264047623, -0.013972178101539612, 0.003287005005404353, 0.05006846785545349, 0.04609297588467598, -0.04650786519050598, 0.03372098505496979, -0.049741148948669434, -0.0810423269867897, 0.1768866330385208, -0.04236483573913574, 0.006486580707132816, 0.02987753227353096, 0.029346397146582603, 0.044132910668849945, -0.01705482043325901, 0.1310410499572754, 0.015202529728412628, 0.314153254032135, 0.06521330028772354, -0.2685449421405792, 0.22232957184314728, 0.11515633761882782, -0.01521057728677988, -0.04962236434221268, 0.06964745372533798, -0.8084630966186523, 0.03409452363848686, -0.10282563418149948, -0.010584594681859016, -0.03746061027050018, -0.06698623299598694, 0.3009454309940338, 0.2619681656360626, 0.3446800112724304, -0.006736466195434332, 0.11645638942718506, 0.027535222470760345, 0.19480924308300018, 0.16811655461788177, -0.04496338590979576, -0.01623368263244629, -0.06455587595701218, 0.07425826042890549, -0.013467386364936829, -0.34681016206741333, -0.039691489189863205, 0.6171828508377075, 0.04780398681759834, 0.03019685298204422, 0.033731523901224136, -0.08295296132564545, -0.13170653581619263, 0.05406668782234192, -0.01704314909875393, 8.923027780838311e-05, -0.03557056933641434, -0.07916434109210968, 0.24441470205783844, -0.05789270997047424, 0.0056367372162640095, 0.016052477061748505, -0.17886483669281006, 0.012851565144956112, -0.04449256509542465, -0.17655591666698456, 0.016305455937981606, -0.04001903533935547, -0.21723783016204834, 0.02780281752347946, -0.5379731059074402, -0.06169147789478302, 0.04943326860666275, 0.06658867746591568, -0.5140475034713745, 0.14084944128990173, -0.007487398572266102, -0.009344140067696571, 0.04418529197573662, -0.34082484245300293, 0.02098882757127285, 6.0297468735370785e-05, 0.07091528922319412, -0.08302940428256989], [-0.07312390953302383, -0.018342463299632072, -0.2054256647825241, 0.013863850384950638, -0.0557185560464859, -0.013029731810092926, -0.03795984014868736, 0.007109188474714756, -0.03227055072784424, -0.0087403180077672, 0.02124190330505371, 0.07915206998586655, -0.2063078135251999, -0.05927593633532524, -0.016424622386693954, 0.009361877106130123, 0.04612281545996666, 0.034590039402246475, 0.22710755467414856, 0.030735783278942108, -0.07049130648374557, 0.0028742807917296886, -0.056467458605766296, -0.09175466746091843, 0.20676828920841217, 0.06017928570508957, 0.10079649835824966, -0.05863482505083084, 0.04425760358572006, 0.010915495455265045, -0.07605987787246704, -0.1000661700963974, -0.2422494888305664, -0.0017602842999622226, 0.09354814887046814, -0.03745865076780319, -0.30038636922836304, 0.14029072225093842, 0.03805845230817795, 0.16640619933605194, 0.0026491284370422363, -0.05912337452173233, 0.026675309985876083, -0.13518302142620087, 0.012060397304594517, -0.19456709921360016, 0.05736183002591133, -0.050228167325258255, 0.1225142627954483, 0.06265474110841751, 0.028107816353440285, 0.038390155881643295, 0.060405462980270386, 0.1615985482931137, -0.3049195110797882, -0.006874904502183199, 0.03800348564982414, -0.03155200928449631, -0.06982333958148956, 0.2511410117149353, 0.055968668311834335, -0.11134940385818481, 0.044681351631879807, -0.3763282299041748, 0.04403102770447731, 0.04535751789808273, 0.07488879561424255, -0.07242689281702042, 0.13271142542362213, 0.020893195644021034, -0.0044682323932647705, -0.2019682228565216, -0.020115084946155548, -0.00806686282157898, -0.036124713718891144, 0.004328555893152952, -0.6000286936759949, 0.27465829253196716, 0.03449643775820732, 0.001818019081838429, -0.04090122878551483, 0.08314094692468643, 0.052818141877651215, 0.03708142042160034, 0.030887000262737274, 0.01335845235735178, -0.0589991919696331, -0.05776922404766083, 0.16191142797470093, -0.007149599492549896, -0.04822654277086258, 0.015555736608803272, 0.009693424217402935, -0.0659523606300354, 0.08924848586320877, -0.6640287637710571, -0.047036416828632355, 0.0026223023887723684, 0.035277437418699265, 0.06078607961535454, 0.24807001650333405, -0.15524907410144806, 0.19355736672878265, 0.007504351437091827, 0.020047305151820183, 0.06107514724135399, -0.002099171280860901, -0.0781276598572731, -0.0018245535902678967, -0.11126916110515594, 0.03047853522002697, -0.05897989496588707, 0.03503039851784706, -0.049649979919195175, -0.04513042792677879, 0.0429508201777935, -0.002606131136417389, -0.24163727462291718, -0.1596100926399231, 0.02153482288122177, 0.011511202901601791, 0.025467239320278168, 0.028276929631829262, 0.030665038153529167, -0.012973863631486893, -0.036513812839984894, 0.054011352360248566, 0.5555262565612793, 0.008405663073062897, -0.04475671425461769, 0.000290464871795848, -0.053697824478149414, -0.08224847167730331, -0.07541969418525696, 0.05857805907726288, 0.003144979476928711, 0.09864236414432526, 0.012623578310012817, 0.10142841935157776, 0.011001511476933956, -0.31074365973472595, 0.18192078173160553, -0.025579897686839104, 0.016019456088542938, 0.019259601831436157, 0.030976271256804466, 0.023504171520471573, 0.03443685173988342, 0.0490112379193306, -0.10668420791625977, 0.04128469154238701, 0.05686664208769798, 0.04342242702841759, -0.053735245019197464, -0.05025788024067879, -0.010925786569714546, -0.04617958888411522, 0.04093266651034355, -0.01788489893078804, -0.26209551095962524, 0.04051337391138077, 0.05020865425467491, 0.008818954229354858, 0.057935744524002075, 0.09036140143871307, 0.1402168869972229, 0.03828098624944687, -0.04427649453282356, 0.055866554379463196, 0.012197697535157204, 0.1037200465798378, 0.11171680688858032, -0.013485030271112919, 0.024190783500671387, 0.013274507597088814, 0.014203689992427826, 0.059735123068094254, -0.040945492684841156, 0.110346719622612, 0.014302782714366913, -0.2267790585756302, 0.20485301315784454, -0.004508741199970245, 0.058125048875808716, 0.03482270613312721, 0.05501100793480873, 0.05849239602684975, -0.23104825615882874, 0.14262951910495758, 0.020110584795475006, 0.1731833517551422, -0.016548797488212585, -0.0330839641392231, 0.04078645259141922, 0.0848832055926323, 0.029147997498512268, 0.008101862855255604, 0.041131287813186646, -0.6426839828491211, 0.02639099769294262, -0.056222155690193176, 0.05071978271007538, 0.0541769340634346, 0.05081110820174217, -0.584964394569397, 0.11460184305906296, 0.13760937750339508, -0.026486657559871674, 0.1649385541677475, -0.03578823804855347, 0.450634628534317, 0.06779639422893524, 0.02205776609480381, 0.008168880827724934, -0.05607423931360245, 0.03553931042551994, 0.04837120696902275, 0.42642948031425476, 0.010720012709498405, -0.3154083788394928, 0.07307759672403336, -0.0020833536982536316, 0.06374983489513397, 0.041157085448503494, -0.0054907421581447124, 0.059591908007860184, -0.02223397232592106, 0.007257881574332714, -0.02329486608505249, 0.014538098126649857, 0.05223187059164047, -0.11168792098760605, -0.05528814345598221, -0.02338530868291855, 0.0017999084666371346, 0.12410092353820801, -0.06426795572042465, -0.17677198350429535, 0.10408434271812439, -0.06861308962106705, 0.061225101351737976, 0.028979988768696785, -0.25562992691993713, -0.04279688000679016, 0.062048934400081635, 0.007100666407495737, -0.6104153394699097, 0.127773255109787, 0.10627260059118271, 0.003598008072003722, 0.05657743662595749, -0.09320477396249771, 0.015842990949749947, -0.01960132271051407, 0.0039787739515304565, 0.0008579780696891248], [-0.4775170087814331, 0.007370966952294111, 0.3100840151309967, 0.11283331364393234, -0.03983649984002113, 0.026672467589378357, -0.0049110944382846355, 0.11119469255208969, -0.11198766529560089, 0.019726604223251343, -0.19099120795726776, 0.19097425043582916, 0.11462879180908203, 0.0227352287620306, -0.03444692865014076, -0.0583442822098732, -0.11689573526382446, 0.023535432294011116, 0.12828382849693298, 0.04291699826717377, 0.14914123713970184, -0.054636549204587936, 0.07765880227088928, 0.04689031466841698, -0.04205692186951637, 0.02940496802330017, -0.08688078820705414, 0.011861205101013184, -0.035198718309402466, -0.23242290318012238, -0.007321015931665897, 0.0025802720338106155, 0.11385950446128845, 0.06751496344804764, -0.0802767425775528, 0.010136652737855911, 0.0300154946744442, 0.2442769706249237, 0.08211936801671982, 0.17878955602645874, 0.05011942982673645, 0.06212633103132248, 0.06260410696268082, 0.04178435727953911, -0.018981680274009705, 0.049021996557712555, -0.06652989983558655, 0.14370717108249664, 0.4304807186126709, 0.05196903273463249, -0.13801579177379608, -0.08682117611169815, -0.01702062040567398, -0.15858031809329987, 0.22692503035068512, 0.06333411484956741, -0.0984915941953659, 0.03286891058087349, -0.009224915876984596, -0.09758943319320679, 0.06360617280006409, 0.08755895495414734, 0.061884474009275436, 0.1317247748374939, 0.0010628302115947008, 0.1350671797990799, -0.09837211668491364, -0.32884135842323303, -0.07792836427688599, 0.018300877884030342, 0.04446256905794144, 0.14155109226703644, -0.1245168074965477, -0.009787462651729584, 0.05178084969520569, -0.14653274416923523, 0.14584992825984955, -0.04137890413403511, -0.07035252451896667, 0.013552075251936913, 0.17667528986930847, -0.14775608479976654, -0.13735832273960114, 0.06507037580013275, -0.06182609871029854, -0.0657564029097557, -0.04849501699209213, -0.01959378644824028, -0.1356743574142456, 0.05305054038763046, 0.050369083881378174, 0.03742130473256111, 0.014158813282847404, 0.11449898779392242, -0.024124450981616974, -0.697356104850769, 0.024092040956020355, 0.0744425505399704, -0.10507534444332123, 0.027775540947914124, -0.26364561915397644, 0.04181642830371857, 0.17256204783916473, -0.012157253921031952, -0.08573663979768753, -0.03632047399878502, 0.045926377177238464, 0.02505575679242611, 0.09395153820514679, 0.08266748487949371, -0.5510355234146118, 0.04706929624080658, 0.0198317039757967, -0.026315871626138687, 0.13313275575637817, -0.06846696138381958, -0.7307108044624329, 0.07681583613157272, 0.22127307951450348, 0.05483467876911163, 0.07509290426969528, -0.04486612230539322, 0.05989214777946472, 0.1287628561258316, -0.0005955545348115265, -0.11488721519708633, -0.01353610772639513, -0.717782735824585, -0.0453609824180603, -0.28160908818244934, 0.036851171404123306, 0.09982973337173462, 0.00609685480594635, -0.024724066257476807, 0.03560385853052139, -0.0330318957567215, 0.20497789978981018, 0.03121395967900753, -0.17671948671340942, 0.1050531268119812, -0.014096774160861969, -0.46606966853141785, 0.10547294467687607, 0.07025135308504105, 0.004753716755658388, -0.027964988723397255, -0.08296770602464676, 0.013580366969108582, 0.04622166231274605, 0.13119594752788544, 0.02180531807243824, 0.08793830126523972, -0.6473745703697205, -0.19898438453674316, -0.00513109378516674, -0.09529487043619156, 0.10275697708129883, -0.014246365986764431, -0.026538949459791183, 0.19848507642745972, 0.03667445480823517, 0.10218770056962967, -0.23183712363243103, -0.035494208335876465, -0.07629252970218658, -0.12158703804016113, -0.08216696232557297, 0.08224038034677505, -0.1288011223077774, -0.9144294857978821, -0.7944983839988708, 0.009494442492723465, -0.03182834014296532, -0.04218766838312149, 0.04232580214738846, 0.04923044145107269, -0.015436450019478798, 0.057936690747737885, -0.05272172763943672, 0.006859220564365387, 0.12410017102956772, -0.08235994726419449, 0.019159965217113495, -0.06705737113952637, 0.01686086133122444, 0.010057896375656128, -0.08733277767896652, 0.07851215451955795, -0.09659381955862045, 0.03257063031196594, -2.0556015968322754, -0.004703841172158718, 0.1809515506029129, -0.13506940007209778, -0.06325241178274155, 0.046186044812202454, 0.019935356453061104, -0.005228803958743811, 0.2954557538032532, 0.04481446370482445, 0.06977172940969467, -0.3420679569244385, -0.02783419005572796, 0.05861580744385719, -0.09826970845460892, -0.8529665470123291, -0.5380798578262329, -0.04891131445765495, -0.09037884324789047, -0.10120264440774918, 0.09687978029251099, -0.7233499884605408, 0.020581891760230064, 0.05867855250835419, -0.03862800821661949, -0.029646290466189384, 0.04452657699584961, 0.1563054621219635, 0.056982751935720444, 0.3128284513950348, 0.014746819622814655, -0.010599471628665924, -0.031619228422641754, -0.05076424404978752, 0.14042291045188904, -0.0030101551674306393, 0.016772570088505745, -0.2940552830696106, -0.04571593552827835, 0.08897930383682251, -0.05636564642190933, 0.03354516625404358, 0.11801210790872574, -0.05135531723499298, 0.43980374932289124, 0.12791085243225098, 0.07594963163137436, 0.08201460540294647, 0.046008918434381485, 0.03228173032402992, 0.08681539446115494, 0.06632677465677261, 0.367759108543396, 0.06601256132125854, -0.18159319460391998, -0.006430798210203648, 0.07555636018514633, -0.05153234302997589, 0.0042130048386752605, -0.0706116259098053, -0.05342411994934082, 0.2733863294124603, 0.03268277645111084, 0.08810222893953323, 0.016889680176973343, 0.05903652682900429], [-0.15296413004398346, 0.02568628080189228, -0.12290391325950623, -0.06998717784881592, -0.02396983839571476, 0.023288525640964508, 0.0034541524946689606, 0.0025664346758276224, 0.02086043544113636, 0.0330762043595314, 0.019872121512889862, -0.06446067243814468, -0.30853670835494995, -0.04677616059780121, 0.03658415377140045, 0.027941104024648666, 0.06545068323612213, 0.04824163764715195, 0.16588027775287628, -0.04171263426542282, -0.11705193668603897, 0.04051616042852402, -0.07216476649045944, -0.13633620738983154, 0.2827942371368408, 0.0564735010266304, 0.07973434031009674, 0.05540865659713745, 0.005132712423801422, 0.08803396672010422, -0.03720638528466225, -0.018660521134734154, -0.07590887695550919, 0.06593929976224899, 0.07650748640298843, -0.0721341148018837, -0.48664212226867676, 0.17631714046001434, -0.007600970100611448, 